X96-1048,0.9164342806801296,0.04530309353374872,1.3667105870687652E-5,1.9191095216021716E-5,0.03453489728448741,0.6962772018660583,0.82741268008167,0.5152079437090643,0.9705612075636114,0.0,0.7540138463187755,0.8513834631146961,0.6269267177799792,0.8310770096917415,0.8806823235343377,0.43391647042011505,0.07986910844947116,0.07986910844947116,0.07986910844947116,0.6666666666666666,0.00625,0.5,1.2859243809938579,0.8906040931856869,0.15040679439012825,0.0,0.32898913480995967,0.0,0.011019283746556474,0.03414511675221329,0.9880939214847531,1.127109080948652E-4,1.5518931793018784E-5,9.472952077795095E-7,0.011551926183734951,0.7232856705837574,0.8773808074376027,0.5148697128549167,0.2545876822407863,0.0,0.7483523524195456,0.8596730033168335,0.6239491050992627,0.8848217874926843,0.8934526206710713,0.08896106104296635,0.5216488246684089,0.5216488246684089,0.5216488246684089,1.3333333333333333,1.0,0.35714285714285715,0.4975862504581611,1.0673401281591968,0.230308388286996,0.0,0.28249443041424976,0.0,0.008264462809917356,0.012051919484612067,0.9669623852102479,2.1181602978042713E-5,9.726374138170133E-8,3.029434074336863E-6,0.024418563907767366,0.6697706326544808,0.8520576578479304,0.46262031872197446,7.444105166297294E-4,0.0,0.6647151074337714,0.7710720329165383,0.47076591099810805,0.8046176975586531,0.7706551941246316,0.028049649394228167,0.0,0.0,0.0,1.3333333333333333,0.6666666666666666,0.14285714285714285,0.28115963281932055,0.8026520630476476,0.1380325692563078,0.0,0.21857995427855348,0.0,0.005509641873278237,0.17303293712316625,0.37772628440036465,0.4068990294963364,0.0010681371552597983,1.1892040748728916E-4,0.07394305163455261,0.5452879553178847,0.6331429170672568,0.3789609036757902,0.0,0.0,0.7125060289469426,0.812576116958624,0.6141580756622699,0.6690890514484042,0.8498778107709443,0.01717853780711468,0.0,0.0,0.0,1.3333333333333333,0.3333333333333333,0.14285714285714285,0.1992178122479442,0.9347042399945049,0.06353405130039458,0.0,0.25009104835089757,0.0,0.0027548209366391185,0.02740407003022027,0.0,0.0,0.0,0.0,0.0,0.0,0.0,0.0,0.0,0.0,0.0,0.0,0.0,0.0,0.0,0.0,0.0,0.0,0.0,0.0,0.0,0.0,0.0,0.0,0.0,0.0,0.0,0.0,0.0,0.0,0.0,0.0,0.0,0.0,0.0,0.0,0.0,0.0,0.0,0.0,0.0,0.0,0.0,0.0,0.0,0.0,0.0,0.0,0.0,0.0,0.0,0.0,0.0,0.0,0.0,0.0,0.0,0.0,0.0,0.0,0.0,0.0,0.0,0.0,0.0,0.0,0.0,0.0,0.0,0.0,0.0,0.0,0.0,0.0,0.0,0.0,0.0,0.0,0.0,0.0,0.0,0.0,0.0,0.0,0.0,0.0,0.0,0.0,0.0,0.0
C02-1025,0.0,0.0,0.0,0.0,0.0,0.0,0.0,0.0,0.0,0.0,0.0,0.0,0.0,0.0,0.0,0.0,0.0,0.0,0.0,0.0,0.0,0.0,0.0,0.0,0.0,0.0,0.0,0.0,0.0,0.0,0.0,0.0,0.0,0.0,0.0,0.0,0.0,0.0,0.0,0.0,0.0,0.0,0.0,0.0,0.0,0.0,0.0,0.0,0.0,0.0,0.0,0.0,0.0,0.0,0.0,0.0,0.0,0.0,0.0,0.0,0.0,0.0,0.0,0.0,0.0,0.0,0.0,0.0,0.0,0.0,0.0,0.0,0.0,0.0,0.0,0.0,0.0,0.0,0.0,0.0,0.0,0.0,0.0,0.0,0.0,0.0,0.0,0.0,0.0,0.0,0.7800772539460757,0.0971187886556737,3.9486953765400194E-4,9.060331605842173E-8,0.001969367522443202,0.47537495287071274,0.590371934256135,0.37297429681729993,0.2651642899733012,0.0,0.5344947404965892,0.688991436226618,0.3930482819655797,0.5656958939800709,0.6168814031571305,0.33304046560763245,1.0000000000000002,1.0000000000000002,1.0000000000000002,1.0,1.0,0.0,1.23907851788144,0.7669778366321677,0.621041474341203,0.2667137182419329,0.6960904480443199,0.0,1.0,0.017039144956488866,0.49767531414278504,0.0017086694770183136,0.3665182474191974,2.771638466560829E-7,0.11582334784614276,0.3185831524070863,0.4467375970919989,0.14695159291910445,0.42875792850916955,0.0,0.5286668927598197,0.6195238192609236,0.45088875354584285,0.44777910256120707,0.626449839532032,0.17364764543020642,0.494354186715078,0.494354186715078,0.494354186715078,1.0,1.0,0.1111111111111111,0.7549483176390888,0.7546389994358234,0.5304088213242607,0.2594667735260645,0.9038900837305582,0.0,0.9951219512195122,0.0316055475429111,0.9662357638848651,0.011245836760652621,0.015993135429369174,6.141695864815072E-7,0.005572378254264163,0.659720160401349,0.8187412699380024,0.4038584673222129,0.40961454358346905,0.0,0.7242994583511023,0.8806866756285688,0.49871914981853255,0.8699048040927072,0.8913147712330194,0.24871775912235855,2.8296623230798137E-5,2.8296623230798137E-5,2.8296623230798137E-5,1.0,0.75,0.2222222222222222,1.0096914289793846,1.100258673256268,0.9143516791116663,0.5980223512031156,0.8655305017318285,0.0,0.9902439024390244,0.03314702761585733,0.5427247364428531,0.4550130000972345,0.0017813133337973275,1.480557870255431E-6,3.4448572027407585E-4,0.6590692155227609,0.811291199657679,0.4358145225904157,0.4150727464244647,0.0,0.7107962384576046,0.8501199353404638,0.524870668373526,0.852697467458293,0.8615851839668619,0.2590648263193834,3.319026033889109E-5,3.319026033889109E-5,3.319026033889109E-5,1.0,0.5,0.2222222222222222,1.0145822122182382,1.0370808277937749,0.8787704195634317,0.5357435871149505,0.8207838996640753,0.0,0.9853658536585366,0.06048500112926252
C08-1098,0.9997381028054833,2.6189545849164574E-4,1.2159326178594814E-17,4.8624689661625954E-29,1.6689671906452428E-9,0.28246574370410993,0.4588392856098143,0.1941240858696873,0.11591795454599128,0.0,0.5007134781361354,0.6213891365933776,0.417669278762599,0.3318167338555157,0.6021808859467497,0.11416791477059525,9.730890158437242E-4,9.730890158437242E-4,9.730890158437242E-4,1.0,0.19444444444444445,0.09090909090909091,0.44543760732702775,0.77593335285986,0.32602549498377215,0.05750973415496407,0.6239757691144312,0.6666666666666666,0.8539823008849557,1.0,0.8453820311124627,0.07772096769081967,0.06596022736486074,2.4104339876456843E-6,0.006678636397390465,0.6083030717238548,0.7794903008690078,0.33934220443490015,0.5757852571169915,0.0,0.6878805289971697,0.8324575142905033,0.4319083981074075,0.84394180403334,0.8667175951048431,0.6028767458217911,0.5461493989306976,0.5461493989306976,0.5461493989306976,1.0,0.16666666666666666,0.0,1.5745998774085246,1.3031857383014898,0.7260369738666255,0.2963721504555328,0.774394880096063,0.0,0.8495575221238938,4.2218251970560576E-4,0.8468902188921524,0.031231073677313266,0.04040690341504974,4.006920275639115E-6,0.08116737431196279,0.616340411996921,0.7607156128598338,0.3275999735806224,0.4980360706218025,0.0,0.7329144177033425,0.8726057760762341,0.4704161481074375,0.8410218459842902,0.9084096593690852,0.6196720431576241,0.9063520438465399,0.9063520438465399,0.9063520438465399,1.0,0.1388888888888889,0.18181818181818182,1.5484331619725338,1.2360904693526966,0.7203556576217368,0.6672976603544961,0.808261188675072,0.0,0.8451327433628318,0.0012815884513367442,0.9579051353090255,0.04188311461890263,1.4854308603304533E-4,9.482238985927752E-8,3.680840245049487E-5,0.6937587559930687,0.8118452042228854,0.4683645922667481,0.3605024033321542,0.0,0.7460233222281178,0.8082976084827252,0.5485836602708996,0.8615179163584008,0.8844584799829738,0.7190195538496928,0.7559671517200147,0.7559671517200147,0.7559671517200147,1.0,0.1111111111111111,0.2727272727272727,1.9037732413394415,0.9627858879933207,0.8532736179452711,0.6630514462395559,0.8847223872097311,0.0,0.8407079646017699,0.0019478527154243523,0.8731942048147756,0.10440617072576701,0.011572801527515579,1.1494052693317514E-6,0.010588168614034141,0.6427671497162676,0.8142200608635503,0.4028512614340315,0.4522585274170642,0.0,0.706567883724565,0.8598005501831609,0.40702150093027817,0.8595363373439701,0.8799336303607357,0.3364645552248241,0.16248089547189978,0.16248089547189978,0.16248089547189978,1.0,0.08333333333333333,0.18181818181818182,1.07645394784924,1.0975371466927473,0.7710672431585581,0.22156175215454949,0.8008148526430151,0.0,0.8362831858407079,0.0011999240121536518,0.5824457977719882,0.08042980295532576,0.326446336165281,1.611115048954814E-6,0.0022446157830884796,0.6660497456402624,0.8033915473619102,0.47286520063781834,0.30375280385076336,0.0,0.7559120163057189,0.8380856042791263,0.5688198922293981,0.8503401256235664,0.8875040066067642,0.6084067017849331,0.34887786165322215,0.34887786165322215,0.34887786165322215,1.0,0.05555555555555555,0.2727272727272727,1.530028713792336,1.0149851284457163,0.8241122797530569,0.8501538517439272,0.8260484753571976,0.0,0.831858407079646,0.0014044061206968778,0.9535964643005418,0.035230107877998545,0.008689362457082767,3.3263474779364375E-8,0.0024179735726561355,0.6768342672924467,0.8308118256750202,0.3944725507095428,0.30674157858139806,0.0,0.7383899320525902,0.8877960910673621,0.4816781721653325,0.8823689682717932,0.8979051611089955,0.5873332048972189,0.0,0.0,0.0,1.0,0.027777777777777776,0.09090909090909091,1.5111033119598511,1.062739375963899,0.7900714180740956,0.590621203016902,0.8056461740967125,0.0,0.827433628318584,0.001780385606749624
P06-2124,0.9107879078509106,0.020728087857133374,0.006079279453732636,6.112400347575392E-5,0.052281183630955824,0.5015038423127577,0.7800853594435588,-0.0374533807301101,0.46626438545945353,0.0,0.5806096033690066,0.7897926435533905,0.0,0.7989924711237262,0.8220805644061397,0.778861454244171,0.9711094270401925,0.9711094270401925,0.9711094270401925,0.3333333333333333,0.6608695652173913,0.1,1.6867153086359812,1.2552474085077274,0.6808696123906428,0.46651042806877396,0.7429824694341263,0.0,0.32388663967611336,0.006837517500763649,0.04585871308623582,5.812233965932975E-5,9.21758381371707E-5,2.597824668954085E-6,0.005151662114636277,0.07674451400825551,0.17665125236858437,-0.0167855492587352,0.14984294092025227,0.0,0.2680730204037214,0.4164970604877287,0.0,0.10328856423814743,0.36800976434675664,0.10328479516072295,0.0,0.0,0.0,0.3333333333333333,0.6521739130434783,0.0,0.7367101117722241,0.898126195253851,0.19810917297434405,0.19995395128425242,0.3612436840988045,0.0,0.31983805668016196,0.0026428373674275796,0.9667412512684141,0.004803790345682554,9.590251237710949E-4,1.4876999211863988E-5,0.027357078164832647,0.4202611615022467,0.6176868941381837,0.0,0.3171559034075913,0.0,0.595094804130903,0.7593431384237538,0.0,0.7224090051275219,0.8159754535013554,0.2808369797208,0.0,0.0,0.0,0.3333333333333333,0.6434782608695652,0.1,1.2310551425660652,1.0433004858428028,0.4110640227563147,0.13426010662572427,0.7061846112937876,0.0,0.3157894736842105,0.016996873801144667,0.9438333502608843,0.007969060762345064,0.0012681433512634092,3.278347977527435E-5,0.04600404385319104,0.4668027304922554,0.6946127668730555,0.0,0.01570528271281857,0.0,0.5633727281628411,0.7666360378945644,0.0,0.7241111899773067,0.7741578315818379,0.020092131948039375,0.0,0.0,0.0,0.3333333333333333,0.6347826086956522,0.4,0.21959809950326442,1.0868744764426548,0.6207465664288121,0.027130632269642893,0.6843408281565593,0.0,0.3117408906882591,0.004001696670936389,0.9906757146544884,0.001158058304588543,0.003551187440340439,6.99965877087719E-5,0.0011955086561261667,0.5346850954603849,0.7638809134946493,0.0,0.08296810986396089,0.0,0.6152669675873985,0.822000530623512,0.0,0.8583604674633413,0.8697814984413029,0.12727912584106096,0.0,0.0,0.0,0.3333333333333333,0.6260869565217392,0.0,0.8194207271507747,1.2346622165809045,0.5907983309446129,0.09687958454682659,0.7520468211133903,0.0,0.3076923076923077,0.008415102217107263,0.7221999332350201,0.027065094993303385,0.0023025390012325854,2.3845232020657417E-5,0.24292788908730958,0.42956784861204517,0.7166866313106689,-0.04520671014989719,0.0,0.0,0.5878321265466457,0.8191346946004288,0.0,0.7511229119045607,0.8394524346792359,0.018925076376512907,0.0,0.0,0.0,0.3333333333333333,0.6173913043478261,0.1,0.21591544586967604,1.20732829167296,0.5425541500243156,0.0,0.7477128786687381,0.25,0.30364372469635625,0.009171659930558683,0.9619722359604235,0.0027506026200090454,2.94906579728573E-4,8.472814813433508E-6,0.034480820735021046,0.5373449066100547,0.7780844960197748,0.0,0.27397720271152215,0.0,0.624943688155531,0.8376545707379359,0.0,0.8447016105720682,0.8894502056280051,0.3322769254987955,0.058781225208873564,0.058781225208873564,0.058781225208873564,0.3333333333333333,0.6086956521739131,0.0,1.3749902277472317,1.1717999876832885,0.6595794921507838,0.4195749242744186,0.8026704580814004,0.0,0.29959514170040485,0.01471752234436866
C94-2154,0.9986838322784334,7.632015338665928E-4,9.256954742682058E-6,2.389082888743398E-6,4.4957179448022364E-4,0.6843250302847506,0.7949445938516971,0.372536401406276,0.14145999780356505,0.0,0.7245579863641276,0.8061291837699284,0.6187410892280192,0.7625246889231739,0.7862347091369893,0.30569861589357405,0.5171740083660419,0.5171740083660419,0.5171740083660419,0.75,0.07575757575757576,0.07692307692307693,1.1625673575569913,0.9506537863181473,0.7234724644477692,0.06301589540892995,0.7635912705546901,0.0,0.3389830508474576,0.030011637465590987,0.9784728405947403,0.0012701164980999599,0.002169538584038888,1.619131891057081E-4,0.01704821606520922,0.4198114172582568,0.5369278371167501,0.3099462407417712,0.0,0.0,0.5016483221677183,0.5977951665950396,0.343181215201793,0.4093410444323729,0.436849236151983,0.08979166908193255,0.0,0.0,0.0,0.75,0.06060606060606061,0.07692307692307693,0.40218338335333126,0.7015050143163982,0.40457335494508123,3.2809857787239504E-4,0.4193464009274429,0.0,0.3305084745762712,0.009873588619531548,0.9942722293781234,1.2495634125118843E-4,3.169449731948932E-4,1.3153367132655615E-7,0.005278561378305834,0.6913518090426795,0.7943051901766861,0.44955272541798064,0.08199835914187246,0.0,0.7308947766105235,0.8081311463855134,0.6370825417108883,0.8157392388866606,0.8197108416410614,0.5453058673658401,0.0,0.0,0.0,0.75,0.045454545454545456,0.23076923076923078,1.7548535403105707,0.927885032999747,0.744684361014595,0.13035434497019377,0.7665823206003116,0.0,0.3220338983050847,0.07313287750852798,0.9679106723454335,0.0016132469643703636,0.005482738105439541,6.353455066901034E-5,0.01783758091168749,0.46190863850749664,0.5414142014531514,0.36227074727997205,0.03316014349891721,0.0,0.6547257196223142,0.774909928417026,0.4749594139083064,0.36497925587096447,0.5222903467504574,0.15491117372841146,0.0,0.0,0.0,0.75,0.030303030303030304,0.0,0.6517842875377866,0.7227613136298565,0.4154034992213871,0.03152240867938388,0.561100650565862,0.0,0.3135593220338983,0.006041422506178672,0.9958347009372249,6.888117819211774E-5,3.035849860682831E-4,4.6114094975299805E-6,9.159711112956304E-5,0.6307470893054326,0.7209672194097214,0.45701646519748285,0.1408794130420534,0.0,0.7048620897285622,0.7772610381611733,0.6426257657591156,0.7414204340250782,0.81868814306111,0.3818899519048244,0.5150514058425767,0.5150514058425767,0.5150514058425767,0.75,0.015151515151515152,0.07692307692307693,1.4085717150207504,0.8960746297002101,0.6943102917037288,0.06275726350467782,0.791961857495574,0.0,0.3050847457627119,0.01577469049210679,0.9964358295145415,1.1636586603133372E-5,0.0035495769567079126,2.1295701162650408E-6,7.161529707201515E-7,0.7081039871172772,0.8233680390700704,0.527070259822201,0.15363206589646766,1.3561146743451321E-5,0.748216220048736,0.8209668680105218,0.6719903205572214,0.8265639237990748,0.8283239957509806,0.2857514001083146,0.03358818190967147,0.03358818190967147,0.03358818190967147,0.5,1.0,0.38461538461538464,1.139720950412463,0.882509307316955,0.7295069393223207,0.0574882937042906,0.8054152825970284,0.0,0.2966101694915254,0.0785036340545952,0.43168150275083333,0.12192750560461152,0.06715239574707697,1.6057149621004224E-4,0.3781570075823088,0.6503113167103648,0.8077253869405611,0.5228957307815726,0.7346355781676124,0.0,0.6973860527484558,0.8401586387163033,0.5213499389325205,0.5179177500066234,0.5579534108614896,0.08442603971896884,0.1365512043500115,0.1365512043500115,0.1365512043500115,0.5,0.9523809523809523,0.15384615384615385,0.4365721046132659,0.7484300826539674,0.5833573863497317,0.15114950636821955,0.6127695749799745,0.0,0.288135593220339,0.005764666388782207
W08-2222,0.9824107739387214,9.498010784998183E-4,0.0022238769694706995,4.157326489880802E-6,0.01330202426328927,0.5755152049715263,0.7008150376504357,0.3974324433008858,0.475179704250425,0.0,0.6769425859950787,0.804144835859494,0.5377388075221461,0.7823196504763663,0.866818747876761,0.7668281736239997,0.9942324430174465,0.9942324430174465,0.9942324430174465,0.6,0.2391304347826087,0.07142857142857142,1.6083371654619487,1.0402349622697025,0.7230699031452797,0.9446544322619541,0.7321853660511212,0.0,0.4121212121212121,0.007056245975420267,0.5874836447723579,0.36207623204204425,9.491718182560322E-4,7.260678032599316E-5,0.012745029550720764,0.4429236830373527,0.5345664683726478,0.35026981043592914,0.0,0.0,0.4936616738411682,0.6044172768780618,0.3464842865137582,0.6351740320523858,0.6876956021579831,0.051155868660595225,0.0,0.0,0.0,0.6,0.21739130434782608,0.0,0.3830009064487142,1.0657440601647141,0.5149641846794898,0.0,0.5736947958922328,0.0,0.40606060606060607,0.00104790758029824,0.9181812202115507,0.011455998344229775,0.00908644161166299,9.027384916369313E-6,0.0601454086965541,0.6123445286378026,0.7054228664423682,0.5284062802745118,0.2009992091243748,0.0,0.6625421437251501,0.7577516282622986,0.5675725619843365,0.8147855967204657,0.8287549771321389,0.11666429149363104,0.026254019172428502,0.026254019172428502,0.026254019172428502,0.6,0.1956521739130435,0.14285714285714285,0.8296294794157978,1.0820910892765476,0.7272440155458078,0.022426689974178373,0.6962958372190645,0.0,0.4,0.0059857989591958795,0.9915874032262053,0.0056114701333527545,7.249579465139142E-4,8.25030431405095E-6,0.001995735260707342,0.6296892279348724,0.7848229706304447,0.49616113314256166,0.0,0.0,0.6774758777657166,0.8225470497376631,0.5325451944270566,0.8646112398804787,0.8733067970881826,0.3371490372919814,0.0,0.0,0.0,0.6,0.17391304347826086,0.0,1.263015014769504,1.1167362376491614,0.7132834309016024,0.05237798296914229,0.7227015807874649,0.0,0.3939393939393939,0.016672109872393072,0.9607987076932225,0.010022770405132027,0.006050876993082994,4.976996650622861E-5,0.01631177136383574,0.25449375743348707,0.38759865690346507,0.112848401463466,0.466417458376318,0.0,0.4454301407164831,0.5029309395937724,0.38595261402757836,0.4022082875050679,0.5666949491404205,0.7816233574929162,0.9758989387793493,0.9758989387793493,0.9758989387793493,0.6,0.15217391304347827,0.07142857142857142,1.7207866400157061,0.8278193662779224,0.3786135179081994,0.9286850161442427,0.44145510699784035,0.0,0.3878787878787879,0.00354222593560151,0.9374036148180015,0.002135413961362958,0.002008525188754304,1.0929464907959759E-5,0.04986243986962471,0.6449240368562843,0.7783351183625079,0.4704655203276844,0.0,0.0,0.6838640358585486,0.8137128552942584,0.5400191328486289,0.8596365097423647,0.8589365248079959,0.3181628913731089,0.0,0.0,0.0,0.6,0.13043478260869565,0.0,1.0423138134878562,1.1676606724372443,0.7653750637113288,0.05947354163410324,0.7444511238221946,0.0,0.38181818181818183,0.009308295580642036,0.9788619031822926,0.0013722835078899497,6.831455403873196E-5,3.527034146362931E-7,0.019539704560866154,0.6155579119673762,0.7741994758321431,0.4665341507014234,0.0,0.0,0.6819390884611817,0.8388847746426491,0.5494627652482537,0.8522693088486492,0.880695978427441,0.10295240640504827,0.0,0.0,0.0,0.6,0.10869565217391304,0.0,0.5874263445067136,1.2263754760294416,0.711779906652064,0.0,0.6913408490470984,0.0,0.37575757575757573,0.006346386123561411
W95-0104,0.9825421922104723,0.014009871882246437,0.0012837032164877873,2.7790845698865436E-7,0.0021114930425946868,0.5772260414746617,0.8187425871924651,0.292360235788838,0.28596280700311333,0.0,0.7063978988855575,0.8370190114258167,0.4733967901510749,0.8600648429828359,0.9035655520311208,0.29002987399198743,0.0,0.0,0.0,0.6666666666666666,0.8626609442060086,0.5,1.1411140399353936,1.1279183497501637,0.6816741525564604,0.0037601987768466146,0.9053236778642633,0.0,0.7514792899408284,0.03614665843581849,0.9981545462549918,1.53581513035521E-4,0.0016387920786697656,1.0884093639554957E-6,4.701150878122245E-5,0.5297336813605678,0.9181557059450781,0.32894022095570363,0.2445944442204661,0.0,0.7017375855881954,0.927423847932041,0.46100677511911636,0.7756655961718214,0.8728255602754543,0.07668734501227038,0.0,0.0,0.0,0.6666666666666666,0.8583690987124464,0.0,0.5220641198253958,1.0684487034699437,0.6218444362243524,1.1892663175843924E-5,0.8103548726720508,0.0,0.7485207100591716,0.01967760398622449,0.021364038106331164,0.0030737194792406167,0.0026123815091677895,1.5897362173455725E-7,1.831255070429997E-4,0.1290257059376902,0.5598966914677065,0.02361738879839281,0.07409645722954332,0.0,0.20476792355646692,0.5506611417513971,0.06648605140537177,0.23704114542259638,0.2253482645475704,0.0352052339166822,0.0,0.0,0.0,0.6666666666666666,0.8540772532188842,0.0,0.34738572202475315,0.6851906128084193,0.09666788853805808,0.0,0.15040444998861252,0.0,0.7455621301775148,0.001691893887045659,0.3030883300390714,0.009237523965051347,0.6643504669336663,4.383858562627857E-6,0.022773246600737006,0.6276573475420759,0.8066270126625903,0.3509857529355274,0.2868738641584568,0.0,0.7230394896406858,0.848908238041642,0.4459537188902559,0.852566326399882,0.9090509193118465,0.2955389863015388,0.0,0.0,0.0,0.6666666666666666,0.8497854077253219,0.5,1.183356408647024,1.0395010850272388,0.7525084346811807,4.917336453576293E-4,0.8799460922750995,0.0,0.742603550295858,0.04874924571245067,0.9692789389335276,0.004778632961980056,0.02507820963559952,5.512920901039548E-7,6.922211356928315E-4,0.6204753739739957,0.8275253845085294,0.3056843414232668,0.3367145197478611,0.0,0.6992824628279438,0.8585737610543551,0.40117024417315633,0.8944940152204662,0.9131286830840686,0.3154587661299706,0.0,0.0,0.0,0.6666666666666666,0.8454935622317596,0.0,1.172794744199897,1.276072154314241,0.7231845177659044,7.717093357014257E-4,0.8972151666631141,0.0,0.7396449704142012,0.017976224343093677,0.8826605467182568,1.9287352512310876E-5,8.508755153753848E-4,1.6762753334554621E-7,0.11597432450743962,0.5449425711794307,0.7453315049865296,0.3927227062434868,0.13013278728412456,0.0,0.6928713429454904,0.8523037182204342,0.5007243524650732,0.7363760747228091,0.862848961937684,0.14216905722909493,0.0,0.0,0.0,0.6666666666666666,0.8412017167381974,0.375,0.7748437932547102,0.9488627271046264,0.6836361898887956,0.11817976045372731,0.7794765620180005,0.25,0.7366863905325444,0.03546047481037015,0.9813864101497548,0.0010895682770873914,0.0170237437141409,2.972797851596113E-7,3.9014746363663167E-4,0.6391621782206408,0.8080262427941605,0.38971484505901927,0.2664003058799243,0.0,0.7087497817896219,0.8444771168083792,0.42978586093189536,0.8478366478104196,0.8852419547840953,0.10154034148904265,0.0,0.0,0.0,0.6666666666666666,0.8369098712446352,0.125,0.667427903671898,1.1476565143260884,0.7750159227871893,3.974335643878217E-4,0.8481712218767408,0.0,0.7337278106508875,0.018913176487209762
W04-0213,0.9766592145063558,0.01618055052066771,3.5602748457497745E-4,5.963094481273911E-6,0.005725942849441923,0.6715516872988331,0.8071949105583968,0.41308175594294116,0.7225165122245768,0.0,0.7013762172940322,0.8750249072169305,0.47706408167806397,0.8408444393933523,0.8924446995360458,0.5540182812319513,0.005784514486045494,0.005784514486045494,0.005784514486045494,0.75,0.26436781609195403,0.1,1.6658993874882708,1.0352421482680891,0.7957986225232911,0.39819382121563324,0.7918533480272978,0.5,0.4968944099378882,0.31429782350774393,0.9837913963015744,0.011762783358975848,8.087733530680492E-4,1.3521484100545976E-5,0.00106076763360574,0.590625933851637,0.7693076439080496,0.37222834150144707,0.010910481690516519,0.0,0.6356482744994397,0.8423364374189505,0.44161186955119663,0.7813806890309631,0.8299419518088289,0.2238997845429194,0.0,0.0,0.0,0.75,0.25287356321839083,0.2,0.7592201266060925,1.1326831573209208,0.7084300334550304,0.18022483683268903,0.7609251874740809,0.0,0.4906832298136646,0.11548172612588506,0.9082740804147027,0.09052492249430887,3.0128550385103255E-4,1.4607538304629064E-7,8.681484320772558E-4,0.5090199186570081,0.711877330141089,0.36039802819095257,0.05737914306445532,0.0,0.6700757202810808,0.8115741815891517,0.589071873224551,0.6577196875524228,0.7990389464533884,0.044377568479906634,0.0,0.0,0.0,0.75,0.2413793103448276,0.3,0.36484158518888177,0.9573343019999693,0.5789506439187726,0.00428564131030284,0.750746650314358,0.0,0.484472049689441,0.5793882755913706,0.9805262850316575,0.015325659643097365,2.8947125250640985E-4,1.7410287715210434E-7,0.0033143462126324157,0.4436633145594373,0.6668869527540859,0.2471525537147692,0.0017762886829227455,0.0,0.6441508334370213,0.7947086507498298,0.5104544564126648,0.6055192993939491,0.8041114334172073,0.041739133934470284,0.0,0.0,0.0,0.75,0.22988505747126436,0.1,0.34515716660021356,0.9507960105270431,0.5089120612774402,5.206740886187209E-4,0.7017557142565675,0.0,0.4782608695652174,0.20548786285048054,0.1778896117821884,0.8194264163579092,3.04862344808745E-4,5.109113712986965E-8,0.0022849461864548246,0.5119189787527682,0.6659968820395104,0.33685157932993537,0.026379916457240145,0.0,0.6804158340965812,0.7900522295350052,0.5539080686592507,0.7057885333517454,0.8140902987771251,0.14206093126465072,0.0,0.0,0.0,0.75,0.21839080459770116,0.2,0.6902282539299205,0.8638764860225397,0.558342063550513,0.0,0.7394783824647292,0.0,0.4720496894409938,0.9344211695691707,0.8754878097566948,0.012669777887818751,0.004779141329513937,3.84044803032237E-6,0.023140585487171954,0.2890280510817753,0.3956748705895342,0.19938253101084502,0.008556954716836889,0.0,0.494812631828913,0.6588291022707924,0.34822183940387585,0.39978854068629477,0.6456915035102585,0.024910412750936924,0.0,0.0,0.0,0.75,0.20689655172413793,0.0,0.2100248829441591,0.9391598985953948,0.25913454171851513,0.0,0.5480516178228463,0.0,0.4658385093167702,0.09821015130706369,0.8504521157934486,0.14826213236818706,6.242931140394553E-4,1.5641751494691205E-6,6.148764582017173E-4,0.5018742228191603,0.6198217121272368,0.36833859860940105,0.03399305698229541,0.0,0.672977482088918,0.8125893475297897,0.5136356915609884,0.6993682229768144,0.8490094931150656,0.1689738199824157,0.0,0.0,0.0,0.75,0.19540229885057472,0.1,0.7737275899012264,0.959064828841367,0.5515681827698071,0.0,0.7769939021693225,0.0,0.45962732919254656,0.2240476430106532
C02-1025,0.9179906884150504,0.07819740594199795,0.0018063020202807394,1.0199612853320655E-6,0.0017629927929551327,0.6854349420459868,0.8178854342876026,0.45701611530230735,0.25022201689428025,0.0,0.7077899773000672,0.8096918747536191,0.552085086757067,0.860897810183633,0.8630454867800083,0.1098655157413972,0.0,0.0,0.0,0.6666666666666666,0.05263157894736842,0.2222222222222222,0.6278315268780454,1.034959978981254,0.8065441546059798,0.006830691867978171,0.7521520831918217,0.0,0.7073170731707317,0.017180971754789248,0.9936891429490516,0.0015208638441883686,2.8077352362882514E-4,1.0131042260091039E-6,1.6367440985881504E-4,0.6519732226289499,0.8629364550355721,0.4115633757259409,0.6498646476623042,0.0,0.6991155194520171,0.8976271030649223,0.5358416903963139,0.7692061933295419,0.8449844617170781,0.5004431015034656,0.45998272657311345,0.45998272657311345,0.45998272657311345,0.5,1.0,0.0,1.5752021417539064,1.051502010408382,0.7106374708892587,0.14640595220598418,0.6907148154111846,0.0,0.7024390243902439,0.01260631765946456,0.9927090729113024,0.00391948627090836,0.00145170993269138,1.0929435624670809E-6,5.48807704917987E-4,0.6261091929994838,0.7858896453427867,0.34386900601446807,0.4899818377823679,0.0,0.7010215762438786,0.8035174722097501,0.5564805258989768,0.7857263275350681,0.839265080002334,0.5486408195365382,0.0,0.0,0.0,0.5,0.9897959183673469,0.2222222222222222,1.5926336977085578,1.063370474746324,0.6941757416438931,1.4715193479143527E-4,0.683659434194275,0.0,0.697560975609756,0.02666378586182374,0.9699121190484005,0.007020337064551741,0.009744005713379788,1.9611815593901943E-6,0.007165417489195229,0.6340105249696045,0.8551490752274885,0.30016513888696944,0.6657494411721272,0.0,0.7258434538829764,0.9032628488391529,0.5358600627364098,0.8230597644333697,0.878834199198787,0.6358897025301267,0.292573995010386,0.292573995010386,0.292573995010386,0.5,0.9795918367346939,0.0,1.9588885977970687,1.1122801417789536,0.7466786360782525,0.2627789409996751,0.7459611360971933,0.0,0.6926829268292682,0.01707545398503221,0.9751450892824357,0.017553743606138653,0.0064951535733148895,6.034174935783889E-6,2.1020403131104877E-4,0.6766458466259929,0.7848049879916914,0.48626758528147046,0.2828825687387671,0.0,0.735304436859638,0.8318210775640227,0.556185191610613,0.7208461082481191,0.7993929930038035,0.369952166068379,0.0,0.0,0.0,0.5,0.9693877551020408,0.0,1.2946285732626022,0.9572252849109713,0.6853153882975257,4.022839755979306E-4,0.6616522513934385,0.6666666666666666,0.6878048780487804,0.07849857795506467,0.9968507234089536,0.0026146431399109212,1.5128614604382088E-4,2.6852102892378276E-7,3.411756942786827E-4,0.6811978959764695,0.8313600359855856,0.4507022735573954,0.3710729408860085,0.0,0.6904612202962789,0.8358324905208886,0.5075480653854627,0.8353023499751594,0.8152681624810408,0.42714415845578335,0.0,0.0,0.0,0.5,0.9591836734693877,0.2222222222222222,1.4059816904277311,0.9773777567592626,0.795757689464651,0.0019328552638217139,0.6973156993640591,0.3333333333333333,0.6829268292682927,0.14549896871728887,0.7820305765314066,0.002571089119179894,0.09893867495338489,7.820942403121772E-6,0.11583247987356574,0.5966285603750763,0.7052104764644719,0.4240742101284286,0.4446916988408121,0.0,0.6882236132728567,0.790334895929134,0.5276751266535495,0.7298866759861637,0.8587015130124579,0.44658914935747057,0.0,0.0,0.0,0.5,0.9489795918367347,0.1111111111111111,1.3143370696218617,1.1518841021218167,0.6841711644808871,0.0023194346998800155,0.6613003927385004,0.0,0.6780487804878049,0.023039079084283435
D10-1083,0.9537223349116771,2.0491892634405672E-4,0.0011510505015392494,3.30193788575754E-5,0.04463431311312775,0.4309338603508139,0.820869152952887,0.0,0.4212068576858348,0.0,0.5586944296578369,0.8263638292379091,0.0,0.7378213200770128,0.834377863090542,0.14267976123794404,0.0,0.0,0.0,0.2,0.5769230769230769,0.1,0.8727472282761591,1.3127234839220763,0.6092041424263945,0.05044893282391824,0.7452332827085159,0.0,0.25806451612903225,0.006355953637673386,0.9852870993560496,2.2270492375088823E-5,5.78016683197771E-5,9.422407450602926E-6,0.01457232967000912,0.5149636883423461,0.8182348201558797,-0.03226469519186518,0.6628572155731388,0.0,0.5747328703416413,0.7884870675625785,0.0,0.8728773030791872,0.8728116690910539,0.8467531946645014,0.9162602089220314,0.9162602089220314,0.9162602089220314,0.2,0.5673076923076923,0.2,2.299969459906971,1.309886712246532,0.7428196841800103,0.5224561972440316,0.7369837239156423,0.0,0.2540322580645161,0.007762579981894351,0.6707910257656368,1.7966902425838025E-4,1.89904432134964E-5,1.2134228792612146E-6,0.32897253316318364,0.5051197873879757,0.8171820926248349,-0.02649436350262543,0.6492051701047774,0.0,0.5457243532181884,0.7724149524696865,0.0,0.8480233312952118,0.8190433477006618,0.7963452219959557,0.8973891372354418,0.8973891372354418,0.8973891372354418,0.2,0.5576923076923077,0.0,2.1744826735561884,1.2303742507189108,0.7534557039598736,0.4755471500513921,0.6743635592202074,0.0,0.25,0.024379303991898506,0.9882190608668528,4.839586609578872E-4,0.0013130149927226512,3.7744369667005994E-5,0.00895730258895134,0.4835652445503789,0.7321814468173764,0.0,0.6463619085997467,0.0,0.5485850588574169,0.7500193223490853,0.0,0.8007324606403843,0.8346214527014449,0.802531976185034,0.9588818783627507,0.9588818783627507,0.9588818783627507,0.2,0.5480769230769231,0.0,2.129171204566316,1.3157869756888934,0.7282057065766038,0.47950472533677563,0.6969658736423899,0.0,0.24596774193548387,0.009216437990213199,0.5948465254299278,7.061022881345017E-4,0.0012107377927358747,1.3273830378214527E-4,0.0625160447819133,0.48229322795134794,0.7706721316806738,0.0,0.678964873552788,0.0,0.5282603890639429,0.7650593586740687,0.0,0.8150123270579135,0.818559830329314,0.8238749857467343,0.938525646664784,0.938525646664784,0.938525646664784,0.2,0.5384615384615384,0.0,2.1761623975628095,1.3029275583428297,0.6935332162789162,0.49854684522821097,0.6678217156471863,0.0,0.24193548387096775,0.0015901906980875255,0.89895132699735,0.0013214948692295819,0.009030729466794408,2.3127831733134684E-5,0.09001050549107036,0.5137960803433143,0.7846230498468518,0.0,0.6714252595636776,0.0,0.5960109894205885,0.8091277323748594,0.0,0.8400248481735977,0.8666045463583353,0.8162162924217925,0.9281037215102382,0.9281037215102382,0.9281037215102382,0.2,0.5288461538461539,0.0,2.16470048862012,1.2830999051159204,0.710505751364683,0.4916593920518344,0.7291453062720985,0.0,0.23790322580645162,0.0049948604633575895,0.1304220462142073,0.003455133849908694,0.003227993216061679,3.4276072252740624E-5,0.1095025304932958,0.4001607940331492,0.6503035877606492,0.0,0.05380591206832134,0.0,0.23372892722097546,0.4700578707083437,-0.010976068962002263,0.5910648715627478,0.3798719667630732,0.023037523734044094,0.0,0.0,0.0,0.2,0.5192307692307693,0.0,0.27296479011707964,1.033965562482086,0.5637622727564744,0.007727676565769613,0.4691447560134316,0.0,0.23387096774193547,6.295706685845128E-4
D10-1083,0.9995310136493919,2.66355635019956E-5,1.5088804659246071E-5,9.110672528113451E-6,2.910245978223252E-4,0.5896493002118303,0.8230349800465315,0.0,0.43549559846229036,0.0,0.6300023542612373,0.7908886428241694,0.0,0.8163252837735003,0.840576091624596,0.692135111776096,0.5998106883861616,0.5998106883861616,0.5998106883861616,0.2,0.19230769230769232,0.5,2.1021231378663363,1.141552538756907,0.7756253223855573,0.3599772856933579,0.6876929974519661,0.2857142857142857,0.0967741935483871,0.052077844738012184,0.9979768272354873,4.724493074589907E-6,1.574834638717039E-8,8.709625361187098E-8,0.002013095018911916,0.19365397534188486,0.48469111055434705,0.0,0.2523559050106278,0.0,0.39520208105260246,0.6707816159697676,0.0,0.32287813564454687,0.44308474919500734,0.06746417095892589,0.0,0.0,0.0,0.2,0.18269230769230768,0.0,0.469701612756552,0.9645358700519242,0.09664611019887384,0.0,0.1860193071259781,0.0,0.09274193548387097,0.04531224705814981,0.10867292903411187,5.049064301023613E-6,0.001521894573323416,4.353916137437712E-5,0.06835336706298957,0.0,0.0,0.0,0.0,0.0,0.0,0.0,0.0,0.0,0.0,0.0,0.0,0.0,0.0,0.2,0.17307692307692307,0.0,0.200734060739009,0.18708076860765696,0.0,0.0,0.0,0.0,0.08870967741935484,4.00839146806419E-4,0.2207709887864367,4.58587225694269E-6,0.0016033212197670067,4.190214161315487E-5,0.07760881912844304,0.0,0.0,0.0,0.0,0.0,0.0,0.0,0.0,0.0,0.0,0.0,0.0,0.0,0.0,0.2,0.16346153846153846,0.0,0.200734060739009,0.18708076860765696,0.0,0.0,0.0,0.0,0.0846774193548387,4.00839146806419E-4,0.2382782931847999,5.068262802218484E-6,0.0017389080426016494,4.091160068496946E-5,0.06413295505252353,0.0,0.0,0.0,0.0,0.0,0.0,0.0,0.0,0.0,0.0,0.0,0.0,0.0,0.0,0.2,0.15384615384615385,0.0,0.200734060739009,0.18708076860765696,0.0,0.0,0.0,0.0,0.08064516129032258,4.00839146806419E-4,0.12666234037271923,5.3777881884169235E-6,0.0016692098232109897,4.283130757745432E-5,0.0725672883429738,0.0,0.0,0.0,0.0,0.0,0.0,0.0,0.0,0.0,0.0,0.0,0.0,0.0,0.0,0.2,0.14423076923076922,0.0,0.200734060739009,0.18708076860765696,0.0,0.0,0.0,0.0,0.07661290322580645,4.00839146806419E-4,0.8772444679910419,2.4623090892526986E-5,3.613019184877026E-7,7.442045924701419E-5,0.1181896654439897,0.45419507321542646,0.7546852212477224,-0.02656036328008471,0.6229201202332488,0.0,0.5508511040618835,0.7948689368496514,0.0,0.7813026434391509,0.8337618436087384,0.7320282736682262,0.855455530285329,0.855455530285329,0.855455530285329,0.2,0.1346153846153846,0.3,1.974641129268202,1.2192524880538929,0.6382202050646273,0.456289413621989,0.7326325575681149,0.0,0.07258064516129033,0.02848549327571985
X96-1048,0.982938057386978,0.013731884945250569,4.3703262298804723E-4,2.0758999834877473E-6,0.002785931774747748,0.6634672151186769,0.7980299126583102,0.4572328622862693,0.12091508789270512,0.0,0.7874830799860363,0.8720580392637822,0.6495424694522779,0.883622526013436,0.9293149855456299,0.5149802488998385,0.0,0.0,0.0,1.0,0.07575757575757576,0.21428571428571427,1.6567855094284654,1.0506003520902993,0.15580745509679456,0.0,0.26283294486702,0.0,0.4903581267217631,0.016248280385478677,0.9215787847167425,0.003318232634990886,0.010561273515460753,9.4294297505147E-5,0.024494588331829038,0.631585626048664,0.7649687224399306,0.45369528742006604,0.1837685015645663,0.0,0.7145582764116093,0.8496087899337252,0.5549823360197392,0.7991518562839081,0.8309133844645137,0.42845813993274057,0.0,0.0,0.0,1.0,0.0707070707070707,0.07142857142857142,1.3359179040907398,1.063635384124856,0.1175842853592194,0.0,0.2387020325717126,0.0,0.48760330578512395,0.0034889099728247085,0.5569661101695559,0.06048210841795445,0.03284577641338671,2.1001763931824576E-5,0.34399873149864135,0.5360653642929292,0.6526372768941284,0.3734370929714236,0.37836785380409566,0.0,0.5839145810681277,0.6848194565281936,0.46138507719882527,0.6370985768715812,0.7031728227527831,0.12581113670752087,0.0,0.0,0.0,1.0,0.06565656565656566,0.21428571428571427,0.6477237820568944,0.9695932762858802,0.13931307563130665,0.0,0.23833982615560428,0.0,0.48484848484848486,0.006794782668286993,0.5352867057891372,8.857107740603306E-4,0.014925851031014811,1.188670403787334E-5,0.4488877231467969,0.6836054057953325,0.835970824065495,0.4495900424663688,0.1048804314720503,0.0,0.779172131974748,0.873318228142363,0.602791440986056,0.8619238397140762,0.9282866730246243,0.10459730217618673,0.0,0.0,0.0,1.0,0.06060606060606061,0.14285714285714285,0.5309640155672085,1.1088080581319923,0.14950723398873786,0.0,0.27247635232972933,0.0,0.4820936639118457,0.009326485964108653,0.9846631973227975,0.011361368875161563,0.0019521876040596272,8.467437946427962E-6,0.002010467955357409,0.6387001463193293,0.7747717236283183,0.4837030527713875,8.896312259718975E-4,0.0,0.7568462123393078,0.8393870788272692,0.6174729580625226,0.8308257749494217,0.9088521339826079,0.09201942381740705,0.0,0.0,0.0,1.0,0.05555555555555555,0.35714285714285715,0.5139138168838346,1.0733336595513439,0.2543881774488762,0.0,0.257477763091488,0.0,0.4793388429752066,0.026793974446265297,0.7389060746508681,0.25748015821935855,0.0022776083935155092,3.858728242743338E-7,0.0013356597776994152,0.7222982250088538,0.8848988184762135,0.5658382792964757,0.08571235499798374,0.0,0.7939261867257583,0.9124471795087701,0.6439952982149031,0.9040046350327954,0.9411083645643618,0.3679781778554542,0.0,0.0,0.0,1.0,0.050505050505050504,0.5714285714285714,1.311776578034367,1.1527027356710824,0.22987032241083188,0.0,0.25425965168931985,0.0,0.4765840220385675,0.019050112555568755,0.3105399467290439,2.5088208604667674E-4,0.0025135069942581385,2.626933633266806E-7,0.686687832409211,0.6886400248120055,0.8307278141719809,0.5393172617912594,0.08065801811581559,0.0,0.7729969953780123,0.872887809882263,0.6691155548493156,0.883295332364897,0.9122957658341737,0.27462358930891184,0.0,0.0,0.0,1.0,0.045454545454545456,0.42857142857142855,1.1092312157671351,1.07746971418552,0.356795710054314,0.06427634744107756,0.3459326638214441,0.0,0.4738292011019284,0.019931972736129726
W95-0104,0.6832020096381594,3.677350552313215E-5,4.452395742873357E-4,1.0776752327331819E-4,0.3156631053736371,0.6275599908523196,0.8251468372073046,0.377388839400523,0.13391014635411874,0.0,0.7205046226428741,0.8660176253758396,0.38515613266442483,0.893013995515209,0.9149162335088363,0.2900452519799812,0.14025644352994338,0.14025644352994338,0.14025644352994338,0.5,0.15555555555555556,0.375,1.1473218204922164,1.189757164302617,0.7610012726371107,0.3797349151861124,0.884460213264861,0.0,0.04437869822485207,0.024236041576281335,0.45685169401115744,9.500387447682671E-4,0.0021279766282816335,1.0882878892126074E-4,0.5391730296091825,0.6016932158281393,0.787531543459817,0.2954748618434407,0.14468831701843088,0.0,0.7088344143683989,0.8502428559441635,0.41280626683397975,0.8578420588500807,0.881446099585989,0.2930868439094352,0.1515454154733953,0.1515454154733953,0.1515454154733953,0.5,0.13333333333333333,0.25,1.1334576737008488,1.1597003634601983,0.6897939669379183,0.4102990496785853,0.8695000869205451,0.0,0.04142011834319527,0.011829587966936181,0.9289210966071446,9.035106694001046E-4,0.010079600545849866,2.1618657556036255E-4,0.0581752232406345,0.5936010418805759,0.7438558983369095,0.3639288046616236,0.7892871710916896,0.0,0.727416568722066,0.879432826177842,0.4186240075825314,0.7512072362732474,0.8674119556824837,0.2508231807073195,0.7097199782973794,0.7097199782973794,0.7097199782973794,0.5,0.1111111111111111,0.25,1.0018877318494361,1.168472198634841,0.7989229925023714,0.6329389916623857,0.8346602636175988,0.0,0.038461538461538464,0.010485990143804722,1.1262794782359451E-5,0.0027136156531997126,0.012148544335809747,4.563776847031627E-5,0.9850574250182605,0.6800074448629828,0.8471692973273289,0.39037061871163825,0.9217823031808801,0.0,0.7385483002842324,0.9108894567092076,0.39559687963769635,0.9062971220249962,0.9253305426964661,0.5677428758866389,0.18037826464814316,0.18037826464814316,0.18037826464814316,0.5,0.08888888888888889,0.375,1.6602123050840505,1.24354882708313,0.7770516237356283,0.18383215193376157,0.8974763034549523,0.0,0.03550295857988166,0.03085136728079974,0.9388806538564395,5.814752325657179E-6,1.259368894620695E-4,7.458802724197842E-5,0.060884047227229926,0.5782004720016999,0.8277924256428184,0.27455775032012314,0.12170529321593426,0.0,0.6918853062424902,0.8492410586515339,0.42200974013190173,0.8863506561878731,0.9051476125927066,0.19083498082268974,0.0,0.0,0.0,0.5,0.06666666666666667,0.25,0.8004816285615958,1.2314608243033454,0.7137974170969222,0.008212587383920477,0.8795516890137723,0.0,0.03254437869822485,0.020635074083317672,0.9771021697316434,3.760352662547537E-7,0.009962913520923647,1.5615344003907214E-5,0.012673302971852454,0.6956914238487513,0.8798555223640269,0.43290068585822616,0.9139222927636789,0.0,0.7392250179860604,0.9013500869988346,0.38241073357778604,0.9382297673270301,0.9383716401944603,0.5648980538407192,0.17884018452415004,0.17884018452415004,0.17884018452415004,0.5,0.044444444444444446,0.375,1.6547325883082915,1.2037455543834525,0.8176478737464762,0.1828864155565967,0.9150266796023468,0.0,0.029585798816568046,0.06235042167610183,0.9786152523371979,2.116123751190066E-4,1.9669176684861597E-4,0.014923639902159993,8.038408707063795E-4,0.4617424887731004,0.6117719643582904,0.192356545292421,3.2631608187371457E-4,0.0,0.5252707424541161,0.6795468600646305,0.27213405080367686,0.6069992330054303,0.6912048478358401,0.02641772912050154,0.0,0.0,0.0,0.5,0.022222222222222223,0.375,0.4527092842534188,1.0324117038875422,0.6683055904827455,0.0,0.6527936795134883,0.0,0.026627218934911243,0.009346578935631563
P05-1053,0.9908475189020437,8.146326118413679E-4,8.117765995697378E-5,4.095284338021986E-6,0.008245161232718535,0.4667279009666754,0.7292483230504504,-0.06331535030513155,0.6874910977324027,0.0,0.5624801293379883,0.7867253122461183,0.0,0.8060129660325689,0.8126353643761725,0.5909356254219162,0.0,0.0,0.0,0.16666666666666666,0.25,0.1,1.7381665235256052,1.074371819073046,0.7503429696873962,0.4276321794746853,0.7754289273761337,0.0,0.1141552511415525,0.005453300832319292,0.42093937202478027,0.015314021727091091,5.29890641394684E-4,6.83385628241551E-5,0.5631373341957872,0.552348169877028,0.8333091252215243,-0.012036940896784353,0.5774034245735162,0.0,0.6476431704220553,0.8706884208441301,0.0,0.8488316150237695,0.8807254933172941,0.2421016247469029,0.0,0.0,0.0,0.16666666666666666,0.24,0.4,1.107863136503886,1.021939097343736,0.8423269792335066,0.10862619786485081,0.8750487271432953,0.0,0.1095890410958904,0.0195999816183603,0.9356896505418345,2.5538257577438435E-4,0.013924331735205162,1.4679868825385864E-5,0.05009913409673938,0.5205954941224618,0.8117032064949338,0.0,0.16740605754427956,0.0,0.6493557611563534,0.8665971423389353,0.0,0.784035704470423,0.8949024282032471,0.08007845243677922,0.0,0.0,0.0,0.16666666666666666,0.23,0.5,0.6189764965782987,1.1398307906287006,0.7831115931707068,0.01658751559776701,0.8706479108849999,0.0,0.1050228310502283,0.011508589147981314,0.6368600127123304,4.189354537398991E-5,0.005271705017817337,5.04404600405167E-5,0.35718024223278033,0.3843133021917259,0.7041543454645679,-0.030452603359686446,0.12430028947336655,0.0,0.6015292722476677,0.8299701813933297,0.0,0.6098072705692473,0.8272704213125076,0.1654845961424079,0.0,0.0,0.0,0.16666666666666666,0.22,0.5,0.8478912968323694,1.047018444328514,0.6804379824923932,0.027990632704905854,0.8215297500009393,0.0,0.1004566210045662,0.012475660592814086,0.9973043316773027,5.456321446338856E-5,8.60069401030557E-5,1.0269103416334919E-4,0.001240402527091652,0.48570274255401663,0.7606487488351013,0.0,0.07928301572955444,0.0,0.6350478734564119,0.8330970301832504,0.0,0.6839521588157459,0.8524839614983822,0.07234625096262065,0.0,0.0,0.0,0.16666666666666666,0.21,0.2,0.5446899906276904,1.041483391435583,0.7298238184799163,0.01967151396772644,0.8458217163380061,1.0,0.0958904109589041,0.006834768534541096,0.010104066722924809,1.0555529998530537E-4,4.565587233616152E-4,1.7212045455545175E-5,0.00319710616774218,0.0,0.0,0.0,0.0,0.0,0.0,0.0,0.0,0.0,0.0,0.0,0.0,0.0,0.0,0.16666666666666666,0.2,0.0,0.18374749712306793,0.16180521942513862,0.0,0.0,0.0,1.0,0.091324200913242,4.060255916857327E-4,0.7375970453159232,3.157616386668083E-4,0.0030520207328009006,2.3322253663133117E-4,0.11234453283353117,0.42722680080981085,0.5860854776809307,0.0,0.3578221198285881,0.0,0.5025540473783779,0.6790482103642514,0.0,0.4974267898674356,0.6485092548426561,0.03877545981939845,0.0,0.0,0.0,0.16666666666666666,0.19,0.1,0.3220847049364848,0.9859059201829558,0.4882603137876666,0.00600525374611529,0.6394507013269897,0.0,0.0867579908675799,0.005077357897167357
C04-1089,0.9949554869248474,0.004809785003958112,1.7951970063694962E-7,1.531515328673142E-7,4.399780254430067E-5,0.5921899680953303,0.7324441379167088,0.43747029935092685,0.0,1.0,0.6471137644522204,0.7907703273776588,0.19535617582495168,0.7568990642512393,0.8847927804711394,0.04833411865316847,0.0,0.0,0.0,0.875,0.41935483870967744,1.0,0.3769442307924312,0.9407726271975957,0.5898242430332193,0.003128716219396485,0.7507320643160229,0.0,0.7627118644067796,0.07525216020251356,0.9963218744013205,0.0031037199907013634,8.892341388419465E-6,4.2506696500201556E-8,1.3162971235251063E-6,0.5179477608454874,0.6185477329209467,0.3430667677175079,0.0,1.0,0.5845164465745462,0.6863741284074957,0.36404482790198506,0.6995704335724436,0.718855467168156,0.051420240883808144,0.0,0.0,0.0,0.875,0.3870967741935484,0.23076923076923078,0.3335029803038158,0.9688551822086935,0.44440609760272537,0.0023253737463996777,0.526274594270497,0.2,0.7570621468926554,0.030034430036949368,0.9997990256221078,2.858810155120796E-5,7.749165936096431E-5,9.648824048270012E-9,9.367758078007918E-5,0.5849849008867462,0.8040857029013804,0.27534326775087137,0.0,1.0,0.653064815602535,0.8443387255784273,0.13881035930352403,0.8725477674623705,0.9158792315523591,0.1765042418017269,0.0,0.0,0.0,0.875,0.3548387096774194,0.15384615384615385,0.7435721828611109,1.0074070237175101,0.6976289774237314,0.030733183710668386,0.7832526865911887,0.0,0.751412429378531,0.09252801299536388,0.9464709756678106,0.009097272573153313,0.018142560581182007,3.6177396241424543E-6,0.0027957324603621278,0.2596992126359174,0.4772300858398319,0.10392655832669363,0.0,1.0,0.42962946295299725,0.5518554399359752,0.1898348972928493,0.5235656762224896,0.6273252728510051,0.01541180899100302,0.0,0.0,0.0,0.875,0.3225806451612903,0.0,0.16957752167352763,1.12944654976133,0.3326392249969789,0.0,0.4609737657477831,0.0,0.7457627118644068,0.002590315690990599,0.996667361552214,0.003212088545985581,8.085797824858891E-5,2.5912087142928123E-8,2.2043540037061716E-5,0.40538726496567623,0.6771884328550692,0.14085978940975086,0.0,1.0,0.6117591965445209,0.7993792574763505,0.294108359023813,0.6622179575293455,0.7644056920238601,0.1774625776521331,0.0,0.0,0.0,0.875,0.2903225806451613,0.0,0.6560158450526851,0.9412470926110038,0.4458957276910761,0.010627162353977815,0.5898764989242388,0.0,0.7401129943502824,0.04416641399725502,0.9980278543242244,4.459945594269895E-4,6.383671751913391E-4,5.813083203973489E-8,8.861121722332195E-4,0.5194933379451534,0.7633515123078785,0.16584699241886341,0.0,1.0,0.6235546342838529,0.8096147358265949,0.20305170600287495,0.8461901095690485,0.8731371617976995,0.6608250794022835,0.7528010503280572,0.7528010503280572,0.7528010503280572,0.875,0.25806451612903225,0.07692307692307693,1.5215551256130468,1.045995312970114,0.5146227373177606,0.31400700746226823,0.6379673755535485,0.0,0.7344632768361582,0.0807916464135903,0.982667449706075,0.004117092730329355,0.010077725895009108,4.5404837723604797E-7,0.003015802453312322,0.44073660083640853,0.6444489852784369,0.1495901668866183,0.0,1.0,0.574441736861051,0.7468791597006635,0.05715421683557675,0.788965055439233,0.8723733106614758,0.7137061669590691,0.83196244458263,0.83196244458263,0.83196244458263,0.875,0.22580645161290322,0.0,1.6497557089741064,1.0464934801652233,0.6486053463636469,0.3566406748435588,0.7524544005877478,0.0,0.7288135593220338,0.01789934120875929
C90-2039,0.9138254536904528,0.004636256592074964,0.001145695426948116,5.218023693217796E-6,0.00970776054796039,0.09658896800789495,0.281791441728821,-0.08357408746838432,0.575854931723268,0.0,0.42569153192099635,0.564405288052905,0.26783490688191225,0.3128804511986563,0.5461362032937205,0.33833748943184855,0.0,0.0,0.0,0.7142857142857143,0.3508771929824561,0.0,1.0233241012331045,0.9753823944992781,0.07849913730717316,0.0,0.4191256813845471,0.0,0.4312796208530806,0.015522891610213816,0.9736534856116704,0.0030120473958465143,0.0013765435644043193,3.0884373490529876E-6,0.00819510109841066,0.17849885899969536,0.46207158994022457,0.03450725678660971,0.4351391040317158,0.0,0.23484518645096936,0.43861834724516396,0.1564963227568816,0.4249017095064475,0.37479474781813754,0.39588763852219566,0.0,0.0,0.0,0.7142857142857143,0.3333333333333333,0.0,1.1499189122023523,0.9149408933397811,0.26308381039972384,0.0,0.30221273138710025,0.0,0.4265402843601896,0.02004632132411751,0.9775807049208468,0.0023824076398100175,0.0011060861592989057,4.640494196749066E-6,0.006681873056828495,0.17048560514585012,0.4649965642818242,0.017304971165292234,0.45510935590108575,0.0,0.2827339000093749,0.4840520445308487,0.2114744935168678,0.43975942632441556,0.44628406900462525,0.4061616716740498,0.0,0.0,0.0,0.7142857142857143,0.3157894736842105,0.0,1.1759897827925854,0.9281711276010024,0.23561489847919168,0.0,0.38755062573308835,0.0,0.4218009478672986,0.013685892760549401,0.9349567503088689,5.678279631160406E-4,0.0025673321675876216,1.3695361139820514E-5,0.009329152630208882,0.1653273800567336,0.4357409146594695,0.006204079515771265,0.4358910659272309,0.0,0.2742773779335699,0.46453876768163105,0.20759498911316632,0.40743391663562906,0.4242736583902538,0.39645374315481563,0.0,0.0,0.0,0.7142857142857143,0.2982456140350877,0.0,1.150678656609316,0.8949351243241938,0.2281921948852949,0.0,0.37966409309804305,0.0,0.41706161137440756,0.015603443966829878,0.9113813466072719,0.011399044450914147,3.487671397499807E-4,4.766801371719033E-6,0.07087672316714742,0.44070257322801837,0.568182081902356,0.3317857054245564,0.0345524547824554,0.0,0.604327529379176,0.7031676353938994,0.47428256228990406,0.657919252690478,0.7031836922193301,0.03300460917270288,0.0,0.0,0.0,0.7142857142857143,0.2807017543859649,0.0,0.29963642050650907,1.1288198027737122,0.475221215077342,0.008700272694262393,0.6697499655149789,0.0,0.41232227488151657,0.023485500377188172,0.10622100242096587,5.484377682895222E-5,1.1564724967454578E-4,1.397506319981417E-7,1.656155388916651E-4,0.10966751728024009,0.2919074314205209,-0.08885045357376001,0.0,0.0,0.4243103300114759,0.5753884471111145,0.26500367768621025,0.3274975457174993,0.5408952046667701,0.03934284429663594,0.0,0.0,0.0,0.7142857142857143,0.2631578947368421,0.0,0.37342275625531346,0.9223702336139427,0.10074687707400183,0.0,0.47071593637918585,0.0,0.4075829383886256,0.013329016686483768,0.078832588626126,0.002672075287811259,6.459443341278701E-4,7.78631324495831E-7,0.00205402709557983,-8.008451927852022E-4,0.17139052116819697,-0.12653868245787517,0.0,0.0,0.3421862511360327,0.42983118279358773,0.2600773171679359,0.2505155739269403,0.40719171981030283,0.05153559330513387,0.0,0.0,0.0,0.7142857142857143,0.24561403508771928,0.0,0.402120549607401,0.907014866487779,-0.017531919797739333,0.0,0.3055605938205407,0.0,0.4028436018957346,0.01906267493688634
I05-5011,0.0,0.0,0.0,0.0,0.0,0.0,0.0,0.0,0.0,0.0,0.0,0.0,0.0,0.0,0.0,0.0,0.0,0.0,0.0,0.0,0.0,0.0,0.0,0.0,0.0,0.0,0.0,0.0,0.0,0.0,0.0,0.0,0.0,0.0,0.0,0.0,0.0,0.0,0.0,0.0,0.0,0.0,0.0,0.0,0.0,0.0,0.0,0.0,0.0,0.0,0.0,0.0,0.0,0.0,0.0,0.0,0.0,0.0,0.0,0.0,0.0,0.0,0.0,0.0,0.0,0.0,0.0,0.0,0.0,0.0,0.0,0.0,0.0,0.0,0.0,0.0,0.0,0.0,0.0,0.0,0.0,0.0,0.0,0.0,0.0,0.0,0.0,0.0,0.0,0.0,0.6147790929471072,0.34643881040728636,0.02576515857560975,2.2326088487723047E-7,5.59781344460047E-4,0.5265934971505002,0.6714766543550367,0.312146692181441,0.4739665981547388,0.0,0.5715678043831357,0.6758362728277928,0.31923412485364405,0.6372653289112746,0.6894589568586912,0.8011901354529786,1.0,1.0,1.0,1.0,1.0,0.0,1.9588501083183782,0.7712716719491516,0.6942359853166704,0.5660695265747009,0.5887551436477841,0.0,1.0,0.034848535395073175,0.8511625493891124,0.0377686543631568,0.10656200821274006,2.466616633676876E-6,0.0015119320470981011,0.4665509944805271,0.601907340371625,0.17493881544248888,0.9866080928169123,0.0,0.5387531443297556,0.660472341804293,0.08468916859186251,0.5422434560218127,0.6893066346521127,0.43731164977767556,0.47979487300110457,0.47979487300110457,0.47979487300110457,1.0,1.0,0.2857142857142857,1.1407835541654325,0.8688088448758268,0.9102429260922914,0.26936848695015786,0.41464928003040513,0.0,0.9953051643192489,0.02225566204414488,0.13799802381963927,0.05510546197941085,0.6476957817383252,3.569323486680802E-7,0.1474840870349159,0.575689823094483,0.7279786489644767,0.2348577088251118,0.8521869435117625,0.0,0.6452888188197092,0.7629886447141419,0.14211407624914577,0.7251752783074163,0.8015874991677524,0.5988771506589051,0.407223950265819,0.407223950265819,0.407223950265819,1.0,0.8571428571428571,0.42857142857142855,1.5505461877450988,0.861123020655309,0.7700509651932963,0.5378755362403597,0.6341982780044729,0.0,0.9906103286384976,0.05286492565756415,0.9636891115473961,0.03022034822016824,0.0049940625243177226,2.2455191919401897E-7,5.0736720725977275E-5,0.4757472904268636,0.642024448706676,0.19868864695165753,0.3826593697207369,0.0,0.5973874135671497,0.7736996344191427,0.1741471432380789,0.6654042166565312,0.7933072401873723,0.39607000382336216,0.0,0.0,0.0,1.0,0.7142857142857143,0.14285714285714285,1.107356146428768,0.8856589237288448,0.5419749392027,0.6460797441794639,0.7184740086136233,0.0,0.9859154929577465,0.044249086561264535
I05-5011,0.9873558431386799,0.0047220904949313225,5.609225921229991E-4,1.94326166837201E-6,0.007204944955057636,0.5221712868473136,0.7137725435598844,0.11029116930527796,0.04530083343169974,0.0,0.6141294782058409,0.7764107371034878,0.08756722870672586,0.8211506084441587,0.8565320016613425,0.15875961211159348,0.05713221021262843,0.05713221021262843,0.05713221021262843,0.7142857142857143,0.6081081081081081,0.0,0.6891694578939394,1.0830361032031963,0.6142312085482399,0.018002066237013198,0.7563337500045326,0.0,0.48826291079812206,0.015344990304894482,0.8930058430984127,0.005390090934977772,0.0929649516981668,7.587830240131852E-6,0.006142322990960886,0.4994780224207925,0.7628120522140609,0.1442886635349727,0.01455572443642263,0.0,0.6362890178371071,0.8197303817147124,0.16368873372398907,0.8450721330107137,0.8840874343709576,0.6764595275969216,0.8714802954783473,0.8714802954783473,0.8714802954783473,0.7142857142857143,0.5945945945945946,0.0,1.6783237066057284,1.0690587707411896,0.5878006997937744,0.4963977354865765,0.7757723134041518,0.0,0.4835680751173709,0.03833532378280327,0.9802723833132768,9.138920546292395E-6,4.985621012702384E-7,4.018693229075879E-5,0.019625476999642837,0.28610977408587485,0.43735905918396045,0.0935784700809118,0.030495372061862338,0.0,0.4076920239391266,0.510825436814892,0.03774511239156587,0.3407602372084858,0.5192038059849304,0.12840423918260171,0.0,0.0,0.0,0.7142857142857143,0.581081081081081,0.42857142857142855,0.6191869931609982,0.7637691702722157,0.3089866724990819,0.005585944333616042,0.37022650228843484,1.0,0.4788732394366197,1.0,0.4089427774245751,0.012883849153624914,0.02342306948112151,1.7820383377316833E-5,2.978479156514827E-4,0.4991782621693439,0.7477468641626532,0.13068440086126462,0.013468162973428384,0.0,0.6314688734981391,0.8096036860571231,0.11168912247925826,0.7985265219932007,0.8738639143939914,0.05533286116493041,0.0,0.0,0.0,0.7142857142857143,0.5675675675675675,0.42857142857142855,0.5137614583323127,1.1380965374728618,0.603889601651755,0.0,0.7147106082648735,0.0,0.47417840375586856,0.018693024035336084,0.2544287482397208,0.002713038973174642,0.012897267756242541,1.0884168730846973E-5,0.014812190162970881,0.23737225935514944,0.3428837470214457,0.10172789329255089,0.0,0.0,0.27381042415066104,0.3854728251803779,0.0274594334815946,0.3438395182399613,0.35167077558405063,0.04131558989850826,0.0,0.0,0.0,0.7142857142857143,0.5540540540540541,0.0,0.44949761814533185,0.773036919206022,0.33025832718235376,0.0,0.28294491752288625,0.0,0.4694835680751174,0.0030706628599783954,0.9909160082071575,0.0015786654568265516,0.0012353491463064977,1.4640065909762594E-5,1.7940093388815555E-5,0.46394951363029346,0.5977789994021439,0.20357140828472675,0.046139420433588166,0.0,0.5539040071239254,0.7116052384463071,0.05736448002540169,0.6733082497490749,0.7703626280108343,0.032305317523506585,0.003827856577532958,0.003827856577532958,0.003827856577532958,0.7142857142857143,0.5405405405405406,0.0,0.46958922541658177,1.0245346358606882,0.5391520486050453,4.221395988004007E-4,0.6666334122555198,0.0,0.4647887323943662,0.008916098149171525,0.7580708538215967,0.04095824468568172,0.004924770293825733,6.593968637410405E-6,0.19477729934506366,0.5299573466790168,0.7864694514600148,0.12717974849517363,0.19267619404755976,0.0,0.6398310596889567,0.8411507986405373,0.10132457696830852,0.8825602331070976,0.8977179183060219,0.6200480422569902,0.5603168048729394,0.5603168048729394,0.5603168048729394,0.7142857142857143,0.527027027027027,0.2857142857142857,1.5993114971789861,1.190586692791146,0.6833540173333168,0.8383201910252518,0.7747268524028355,0.0,0.460093896713615,0.0318755588660561
J96-3004,0.8746426142276542,0.005723357733488996,1.7291841297780672E-4,1.5732113346618598E-6,0.001435321599193967,0.03209711012294215,0.38321084787807924,-0.09109087925006498,0.003471628944081854,0.0,0.3287006084810552,0.6567050126451258,0.0,0.10566514989665582,0.36691189057095946,0.018907242671110564,0.0,0.0,0.0,0.625,0.3935483870967742,0.0,0.30516868931773555,0.7435376842451854,-0.08622552060008003,0.0,0.2839174321681261,0.0,0.50418410041841,2.7489483671216876E-4,0.9818803028869385,0.004295722854631051,0.002149574216494507,2.585596505225451E-6,0.00946107861916829,0.005666868240111147,0.3817401077755355,-0.15403406042975856,3.0548588178748974E-4,0.0,0.33698149901657903,0.7606722211446173,0.0,0.06287494605773607,0.3985814795024863,0.016598104909364638,0.0,0.0,0.0,0.625,0.3870967741935484,0.0,0.5292812748658828,0.7959849772458244,-0.12425973636902608,0.0,0.28678727730268117,0.0,0.502092050209205,0.001808272462208936,0.9818803028869385,0.004295722854631051,0.002149574216494507,2.585596505225451E-6,0.00946107861916829,0.005666868240111147,0.3817401077755355,-0.15403406042975856,3.0548588178748974E-4,0.0,0.33698149901657903,0.7606722211446173,0.0,0.06287494605773607,0.3985814795024863,0.016598104909364638,0.0,0.0,0.0,0.625,0.38064516129032255,0.0,0.5292812748658828,0.7959849772458244,-0.12425973636902608,0.0,0.28678727730268117,0.0,0.5,0.001808272462208936,0.980253914285382,0.003151799986173402,0.0011449948853325168,2.340887659523912E-6,0.00884717622409483,0.005666868240111147,0.3817401077755355,-0.15403406042975856,3.0548588178748974E-4,0.0,0.33698149901657903,0.7606722211446173,0.0,0.06287494605773607,0.3985814795024863,0.016598104909364638,0.0,0.0,0.0,0.625,0.3741935483870968,0.0,0.5292812748658828,0.7959849772458244,-0.12425973636902608,0.0,0.28678727730268117,0.0,0.497907949790795,0.001808272462208936,0.998534008460831,2.353081971197916E-4,7.603648589240945E-8,1.3221222728888915E-8,9.116335924938476E-4,0.31109100702408166,0.5196794605653747,0.0,0.10829284525869609,0.0,0.5909241978221826,0.7519989244005597,0.0,0.5274981947689481,0.7525965260155638,0.5509898851966841,0.0,0.0,0.0,0.625,0.36774193548387096,0.5,1.7793329036089212,0.9662224725292755,0.3361961572018711,0.0,0.6413420064275669,0.0,0.49581589958158995,0.035890252485716825,0.87574676587875,8.565676402626401E-6,3.404359961049083E-4,4.35980092327935E-6,0.12352067104826918,0.49769876160428034,0.7870804816261308,-0.017516298306985326,0.0018107144382161226,0.0,0.6203218788654663,0.8055373331878278,0.0,0.7741984891341159,0.830382560831904,0.5307259206511538,0.0,0.0,0.0,0.625,0.36129032258064514,0.08333333333333333,1.5456215351123963,1.1195362245087317,0.7157417875909763,0.0,0.7675568768259692,0.0,0.49372384937238495,6.322166377967968E-4,0.963361028273242,0.029728811893314878,6.338803583976594E-4,1.8884485617626791E-6,0.005934140117903239,0.5404487108551589,0.8131098864238425,-0.002084238776974755,0.19178796900954342,0.0,0.6460956792720073,0.8310350574490682,0.0,0.826770976183153,0.8823028386296043,0.09145232439249708,0.0,0.0,0.0,0.625,0.3548387096774194,0.3333333333333333,0.6983475737356912,1.1378168894171679,0.8146401797984547,0.013409437376831994,0.8453235116950438,0.0,0.4916317991631799,4.0930849314918955E-4
W95-0104,0.998662764736083,6.246659027344663E-5,0.0010775079381145592,1.3504690149591062E-7,1.0847917968290136E-4,0.6339750825338617,0.8310386182269657,0.39715439036641603,0.6667976031854039,0.0,0.6994348202593031,0.8320354731850483,0.3925653448921197,0.88713669470987,0.8913864889493219,0.12728380896140296,0.24200948175592935,0.24200948175592935,0.24200948175592935,0.8333333333333334,0.34782608695652173,0.25,0.6763237094220546,1.134984564943597,0.7701123308745486,0.01325683422518088,0.8641553874865308,0.0,0.8698224852071006,0.04270648479197275,0.945558402394849,0.04796907137104163,0.006196753011925501,1.6671173273568294E-4,1.0751291931056484E-4,0.5917362544196417,0.7595253914841399,0.3620013228904891,0.08067561809773266,0.0,0.7133903506882256,0.865083323293443,0.38353476925297647,0.8374485261366484,0.9154861661242342,0.03431105490697272,0.0,0.0,0.0,0.8333333333333334,0.30434782608695654,0.375,0.3237040764567689,1.183459931857532,0.7805887075926983,6.564462099731015E-4,0.8755259607879002,0.0,0.8668639053254438,0.03687905614235981,0.9920871395046529,0.002578019994247974,5.71794990422636E-4,3.2355381995069357E-7,0.004688988441209182,0.5990610001050214,0.7374693824780857,0.34370035918521863,0.015472953885773405,0.0,0.630260229112828,0.7750178615187315,0.3909433429862664,0.7439454239019971,0.7644688200213448,0.03605180343824845,0.0,0.0,0.0,0.8333333333333334,0.2608695652173913,0.5,0.33811837293664804,0.9820773488853186,0.7937322780249491,0.02872537392364721,0.7144436238715951,0.0,0.863905325443787,0.01899468015046694,0.9156099829156995,0.0032989706717379834,0.07463161637514554,9.429837496331E-7,0.005713757931316558,0.5710186559407322,0.8163421133198998,0.30543578191895715,0.9890366813910685,0.0,0.6810111254561905,0.872525980202122,0.36468901631188444,0.8065724481905063,0.8465708150431,0.5065928198093447,0.0,0.0,0.0,0.8333333333333334,0.21739130434782608,0.0,1.4252678198059479,1.0860979100624366,0.7051156454631602,8.918656876177583E-5,0.8146580925292237,0.0,0.8609467455621301,0.027977292189773267,0.7205296266569676,0.129706490242456,0.08492365401075477,5.714899862882009E-7,0.05855155995778899,0.4733918061750896,0.6573569597165798,0.22575897449050156,0.992005004565125,0.0,0.6490072940423874,0.8210712416816135,0.3378523731787658,0.6676370218124118,0.8044616001646087,0.4962077724109288,0.0,0.0,0.0,0.8333333333333334,0.17391304347826086,0.0,1.3968990825629444,1.1010004749197055,0.5387483409572814,0.0,0.7909266610788351,0.0,0.8579881656804734,0.02597419135361801,0.2165043550913171,0.5572033406778507,0.03879577826789231,1.774408678674964E-6,0.028253134894180763,0.15194644695396026,0.28091756225391157,0.010536894554001938,0.0,0.0,0.47559219693401567,0.6305123965194777,0.1834003715266977,0.22470403040670037,0.5863002276180381,0.010992271805652999,0.0,0.0,0.0,0.8333333333333334,0.13043478260869565,0.0,0.1792295160611256,0.9959446256242681,0.1498450738073446,0.0,0.5933344404487585,0.0,0.8550295857988166,0.011890289981353072,0.0838436012941138,0.0034550351965470013,0.18743064467287268,3.4089056316123236E-7,0.0015001068836119134,0.5448391096334625,0.6674877104342251,0.37395326033283965,0.0,0.0,0.5053365840713411,0.6281998131641992,0.30695713657797713,0.6690366439008633,0.6391237123355179,0.0,0.0,0.0,0.0,0.8333333333333334,0.08695652173913043,0.0,0.17848053178270976,1.3228230428663168,0.5960883937631197,0.0,0.5919270300535072,0.0,0.8520710059171598,0.0014515610287838944
N01-1011,0.9396718250208572,0.02973814930217208,0.022002094991716147,1.2476751398796044E-7,0.008456220500289668,0.6139489119206709,0.7279401581149071,0.5209593716558604,0.5470255139195391,0.009788782377932286,0.6997908758858924,0.7796858897847979,0.6063654437330187,0.7041830378447752,0.8065651319013196,0.6884541292924182,0.0,0.0,0.0,1.0,0.30434782608695654,0.36363636363636365,1.562365533576728,0.8857810160195092,0.6691692265439564,0.21988001551073003,0.7750071146733633,0.0,0.8974358974358975,0.014331093442834467,0.9023117565477231,0.046108786220087225,0.03204334353314068,9.252879415208146E-6,0.018214176944356696,0.694291981828031,0.7854978831200896,0.5367824854696215,0.1570110173874178,0.0,0.7723540650097852,0.8668923234897121,0.7077955359985575,0.8304832626155334,0.8927380000777341,0.24716390178736758,0.0,0.0,0.0,1.0,0.2608695652173913,0.36363636363636365,0.8088959554688014,0.9886062087263381,0.7955340681563727,0.1617799403848133,0.8712847003309353,0.0,0.8923076923076924,0.02272553556619182,0.9807094574795956,3.3462945574238255E-4,0.0044567078143158976,1.3602961407641613E-6,0.014048325450135424,0.7043427440785717,0.8344065875374499,0.5134585763809391,0.18497923606950692,0.0,0.7577230784049241,0.8168837732622062,0.6592519530037602,0.8664402055133106,0.8810415536094273,0.2777538328721997,0.0,0.0,0.0,1.0,0.21739130434782608,0.2727272727272727,0.8954581001660951,0.9903032901314038,0.7977521428590619,0.19059764264766352,0.825162055040079,0.0,0.8871794871794871,0.015397738058353575,0.8360807523989074,5.270068327650925E-6,0.15399989855438287,4.402199486217446E-7,2.1019871909430896E-4,0.7350240398736679,0.8205586110215325,0.5845044202748291,0.5779668229365517,0.0,0.7969439588297235,0.8541440957266953,0.7073905419894705,0.8963182540867939,0.9096361316324222,0.6844120313009542,0.0,0.0,0.0,1.0,0.17391304347826086,0.09090909090909091,1.5408779002708188,1.1682718026734507,0.8461124241619561,0.15558497003762892,0.8327790339590241,0.0,0.882051282051282,0.004577364845159949,0.047569261546849304,0.9283991950686248,0.010276520851487128,1.0157106020256738E-6,0.01189268572878386,0.6863791877798233,0.7729173119815648,0.5311321720527742,0.6930941509801997,0.0,0.7654706094714818,0.8344095992719274,0.6908659034463848,0.845850630494061,0.8927697695759793,0.5111782881740372,0.855024242898585,0.855024242898585,0.855024242898585,1.0,0.13043478260869565,0.2727272727272727,1.3106642353868736,1.0190210667093984,0.7836214855739017,0.10985672083824581,0.8282700782533846,0.0,0.8769230769230769,0.00717259156466936,0.10771385134003175,0.28900389964462336,0.4834822104386904,3.0144383666930604E-5,0.10653307145936507,0.6510212498569259,0.7771700061824968,0.5069660412845346,0.009144916696363942,0.0,0.7291486302146686,0.7977166463574976,0.6482342424667213,0.7942926948605189,0.8356878637421657,0.04239974849218601,0.0,0.0,0.0,1.0,0.08695652173913043,0.36363636363636365,0.3162889992539748,1.0663571632149986,0.7584533711482103,0.013341276092754126,0.7885670858114008,0.0,0.8717948717948718,0.0011258880645467124,0.021023325745612855,0.0015525192494732854,0.005425459773803913,1.941223789871434E-6,3.0256727798499784E-5,0.6419887878133903,0.7428974748951718,0.47958747048596573,7.13490129857306E-5,0.0,0.6591239830068064,0.698517538327635,0.556419043118276,0.8018548111296194,0.744353432267648,0.01421111335250765,0.0,0.0,0.0,1.0,0.043478260869565216,0.18181818181818182,0.16188756787130906,0.9880861259423163,0.7606722933595446,0.0,0.699592444497683,0.0,0.8666666666666667,0.005817115974552073
X96-1048,0.9926684901991119,1.3710607040523493E-4,0.0066382656525997225,5.469788683284096E-7,5.29953094530776E-4,0.6494487171533635,0.8293602277720403,0.45999316524917516,0.06121798807289162,0.0,0.7334036191329811,0.8040305146043597,0.6584407295024998,0.8333219844583131,0.8738326928855062,0.1521295652901085,0.0,0.0,0.0,1.0,0.4090909090909091,0.35714285714285715,0.7815928988297408,0.9851911737176141,0.21649904988561217,0.0,0.3603413465590245,0.0,0.6721763085399449,0.008888264082299016,0.9665312810002402,0.030820949803406425,0.002138045915806046,6.651727483970303E-7,4.891629582996342E-4,0.6472041931118195,0.7488517459394777,0.4583819064701868,0.08586230141251941,0.0,0.7435187286536785,0.818168029744183,0.5757140898525303,0.7850289728606503,0.877080894426935,0.24509007136440852,0.0,0.0,0.0,1.0,0.40404040404040403,0.2857142857142857,1.067872813519723,1.0124769294325335,0.3708087188491011,0.0,0.38581753078327097,0.0,0.6694214876033058,0.003965298452230705,0.8201681059737518,0.1077862931148069,0.025214357381888066,8.951056964648969E-6,0.03698774475509408,0.5766140948086954,0.7102603039723808,0.289274349931935,0.9269653778374681,0.0,0.6899509774306966,0.794891980471434,0.514519172453737,0.6718031491386789,0.8172394523003293,0.44709890483588177,0.07628153455386623,0.07628153455386623,0.07628153455386623,1.0,0.398989898989899,0.07142857142857142,1.3574027086673257,1.012047801648717,0.30476406762898006,0.0,0.2874476519984151,0.0,0.6666666666666666,0.006394842907118433,0.5139049561461347,2.3029282287385643E-4,0.014108013376161922,1.2274691969882096E-6,0.4697161000511224,0.6403180855848747,0.8306832837459445,0.399981551228153,0.19666826982563965,0.0,0.7086254181618704,0.7972598057096865,0.5975638609856342,0.8109715681072902,0.8567205389608274,0.16824116874443326,0.0,0.0,0.0,1.0,0.3939393939393939,0.14285714285714285,0.8597598792422612,1.0461509083519092,0.28818872454099254,0.0,0.22330735582072225,0.0,0.6639118457300276,0.004819096049998055,0.9738540683697542,0.025023862333919143,6.440759610804802E-5,3.6105754702244286E-9,0.0010532796315845775,0.2678136013030051,0.41752145311164535,0.16164148619281501,0.058917284078563247,0.0,0.38917132060703014,0.5060462853270843,0.24265133085827803,0.38301491293455275,0.4194695577289899,0.2242789209151101,0.0,0.0,0.0,1.0,0.3888888888888889,0.35714285714285715,1.0825820216981086,0.6501046485626262,0.20801980186986777,0.0,0.24517731159587072,0.0,0.6611570247933884,0.026605807369444637,0.9028671110654858,0.008736461189692816,0.0026326817066890567,1.916527984382989E-5,0.01151797639249786,0.28419753351337407,0.42326790279734394,0.1408584840011552,0.04460361518287275,0.0,0.2398109394635291,0.31691823896684623,0.16769249974056366,0.37545658625906353,0.3007035065890109,0.0804081216051644,0.0,0.0,0.0,1.0,0.3838383838383838,0.07142857142857142,0.46095520656529276,0.7030907612026887,0.1484637608023485,0.0,0.1376610129056122,0.0,0.6584022038567493,0.0018709896223297832,0.9358052497481179,0.05562243442350622,6.014158731746854E-4,1.8463545664030646E-7,3.614501088110084E-4,0.7031944583681534,0.808861198126515,0.576815029191427,0.9421254039771124,0.0,0.763782157348989,0.8494423377665262,0.6787817386188701,0.8300212133731981,0.903618898190638,0.48151166504164783,0.07732570977819674,0.07732570977819674,0.07732570977819674,1.0,0.3787878787878788,0.14285714285714285,1.476245080823634,1.0731024451701623,0.2749671440995893,0.0,0.3295316896976431,0.0,0.6556473829201102,0.005414807582386198
P06-2124,0.0,0.0,0.0,0.0,0.0,0.0,0.0,0.0,0.0,0.0,0.0,0.0,0.0,0.0,0.0,0.0,0.0,0.0,0.0,0.0,0.0,0.0,0.0,0.0,0.0,0.0,0.0,0.0,0.0,0.0,0.0,0.0,0.0,0.0,0.0,0.0,0.0,0.0,0.0,0.0,0.0,0.0,0.0,0.0,0.0,0.0,0.0,0.0,0.0,0.0,0.0,0.0,0.0,0.0,0.0,0.0,0.0,0.0,0.0,0.0,0.0,0.0,0.0,0.0,0.0,0.0,0.0,0.0,0.0,0.0,0.0,0.0,0.0,0.0,0.0,0.0,0.0,0.0,0.0,0.0,0.0,0.0,0.0,0.0,0.0,0.0,0.0,0.0,0.0,0.0,0.7841161833082646,0.17568474579118687,0.03236508075760094,7.841975973447065E-7,0.0014661732937824392,0.39231046922539903,0.6898108924201146,0.0,0.4982665749358021,0.0,0.45605111942416604,0.7224538555928834,0.0,0.47887934633898116,0.5760280105051218,0.8192964119578523,1.0,1.0,1.0,1.0,1.0,0.0,1.8498281548369038,0.8591084539548031,0.5802247816456721,0.5731354959927145,0.6693455235954059,0.0,1.0,0.011234751324969835,0.571365636387422,0.026405391253649838,0.3955367047387112,2.3986144951603745E-7,0.005226845120170766,0.5419758289753677,0.7722664338700627,0.0,0.35621087149842157,0.0,0.5936751543761829,0.822911069802695,0.0,0.6813307700461281,0.7722385002278291,0.812149888657497,0.9782858770467254,0.9782858770467254,0.9782858770467254,1.0,1.0,0.4,1.8335504527036184,0.9687393643661784,0.7139898741164337,0.605545382118925,0.7813619832074711,0.0,0.9959514170040485,0.010845323075730875,0.902792597194268,0.09064000514577333,0.0056635330132357685,1.1165289257768223E-7,7.335410593320465E-4,0.5499491410556983,0.8925422723851273,0.0,0.37244884022136804,0.0,0.6451081923739029,0.8838025215146448,0.0,0.8097200633905894,0.8581997065393923,0.40949810491192035,0.05416743717656555,0.05416743717656555,0.05416743717656555,1.0,0.8571428571428571,0.3,1.5478068186829899,1.0550668267463232,0.7203773380313382,0.19037760004641902,0.8151215880156825,0.0,0.9919028340080972,0.018233155208857016,0.05164371867736824,0.9223987419120437,0.022709965827279164,7.001608044619144E-8,9.709842301586985E-4,0.5204947706328217,0.779093886438049,0.0,0.475372650544406,0.0,0.6394041371482746,0.8151228458560538,0.0,0.7383460431570399,0.8646493126286212,0.783611023380776,0.9723756354690807,0.9723756354690807,0.9723756354690807,1.0,0.7142857142857143,0.4,1.7070707920859962,1.0231871134924502,0.7127327266383039,0.4742727047616037,0.9276955598350625,0.0,0.9878542510121457,0.007809638192849995
D10-1083,0.8845550473899672,0.03475642885237398,0.07054606726226512,5.239375231331077E-6,0.008683228687372478,0.4265102754174873,0.7039519098750846,-0.028105441909937405,0.365906235557474,0.0,0.46585968158519464,0.65444189321035,0.0,0.7169813204020147,0.7056109843207097,0.11631466292363506,0.0,0.0,0.0,0.8,0.8409090909090909,0.1,0.6459490848711749,1.1866670636506438,0.6241921662725324,0.014437631483820112,0.5883271214763758,0.0,0.7620967741935484,0.005911172091225434,0.9987153445346524,6.774359229738325E-5,4.591477572504936E-4,8.9902432838155E-8,2.810399753224113E-4,0.4924851700207858,0.838964010831835,0.0,0.40016671476198445,0.0,0.585232464869124,0.8585985142543598,0.0,0.8036902524649006,0.8337478593934234,0.566863249388367,0.44391897126469815,0.44391897126469815,0.44391897126469815,0.8,0.8181818181818182,0.1,1.7372487593166714,1.2034919557470576,0.6523208642141416,0.24492813410620515,0.6171428130931776,0.0,0.7580645161290323,0.03162036687371425,0.9875654537826721,0.0014846141782251258,6.253121321783127E-6,1.5848905192326421E-6,0.009762367556720363,0.4642564184631627,0.8500115945336005,0.0,0.16652739761225924,0.0,0.6048266108678618,0.8140153083235814,0.0,0.8055863358899873,0.8398705014814406,0.3487719520269676,0.19257438787276623,0.19257438787276623,0.19257438787276623,0.8,0.7954545454545454,0.2,1.2805544902280057,1.1210629119826527,0.5806959833892904,0.10976948739809746,0.6247859244165178,0.0,0.7540322580645161,0.24466904218716481,0.7721285311549229,0.196322371027759,0.004309827869719292,2.274535590208656E-6,0.027095720860214986,0.40012202288462745,0.6996293483912854,-0.01262273134047954,0.0,0.0,0.5569063369248253,0.7751951481931407,0.0,0.7203629343319048,0.8365746271122925,0.040067921453716376,0.0,0.0,0.0,0.8,0.7727272727272727,0.0,0.3162069087897958,1.2637308510999024,0.5462777866243063,0.023335055132307728,0.6739516673832189,0.14285714285714285,0.75,0.00932593487421999,0.9941811328647286,0.003317728262057605,0.002008376737561065,1.095117368435593E-6,2.1678544830432047E-4,0.5780338852321727,0.863552175733974,0.0,0.7472572819378425,0.0,0.6370459922266566,0.8752941234416116,0.0,0.9080253627715547,0.9025733034601858,0.1517137582297004,0.0,0.0,0.0,0.8,0.75,0.1,0.7698638060868694,1.333397387395669,0.7861377245159341,4.340971825737073E-4,0.7301160935130827,0.0,0.7459677419354839,0.009786519847444703,0.9935979810174911,0.002038839016621818,4.830971070625348E-6,1.196793588122196E-6,0.003704413375582801,0.4858392353840192,0.8695516438167045,-0.013319034733196046,0.22630323560183097,0.0,0.6527183703567289,0.9158546511811809,0.0,0.832853951451237,0.9232426174968421,0.3679511344350962,0.2672162423565241,0.2672162423565241,0.2672162423565241,0.8,0.7272727272727273,0.2,1.2311032022734398,1.2185959930041186,0.646631245047707,0.14160323861019863,0.7137569630561997,0.0,0.7419354838709677,0.16423916803806335,0.9996720271624318,1.9590893666745568E-4,8.541185280027474E-10,6.4223805667935E-14,1.2261646807860054E-4,0.3803895775407484,0.7577335421288326,0.0,0.02497549864520105,0.0,0.5645801118712351,0.7797476876727397,0.0,0.6856957262333111,0.7644518594566072,0.23233648191520923,0.0,0.0,0.0,0.8,0.7045454545454546,0.5,1.0185922890514685,1.1455822939136706,0.4579348712829384,0.010854748753638134,0.5220919623802323,0.0,0.7379032258064516,0.6808051124634743
I05-5011,0.9518112944982868,8.27594125278909E-5,0.005563900045207387,3.991168900597007E-4,0.03230597508337084,0.49856598860762713,0.677205723022345,0.18920157151211608,0.03664830198871966,0.0,0.6083143805560571,0.7611015343951777,0.05941639751460166,0.6536392060425961,0.7867081755394063,0.059231424302633236,0.0,0.0,0.0,0.42857142857142855,0.36666666666666664,0.14285714285714285,0.6187533812686782,1.1186278162119057,0.566094010734652,0.0036193785149571936,0.644187425257107,0.0,0.09389671361502347,0.02417314084732047,0.9948883685696783,4.798577967237033E-5,0.0017256942755342652,5.388647660727881E-5,0.0029775945155009367,0.4857373500851593,0.6931255081773846,0.07484201625514601,0.38003224223310467,0.0,0.6180505416723849,0.7604172626032667,0.17238541746769034,0.7948321245381798,0.8423850539004293,0.3973970186347057,0.0,0.0,0.0,0.42857142857142855,0.3333333333333333,0.0,1.1267954855404616,1.026704521788907,0.6065554258091715,0.6316631193673273,0.774405280366736,0.0,0.0892018779342723,0.033098051754567856,0.9306487185310428,1.6260951613771484E-4,2.4040205950367943E-4,3.591970307845946E-4,0.03233220927831559,0.6036188134421178,0.7966834955198994,0.256474031860011,0.19629253459958027,0.0,0.6609158696353278,0.8029028604677497,0.19493410479938417,0.8792155855152338,0.8546773383035657,0.6263078838163397,0.5684658505661547,0.5684658505661547,0.5684658505661547,0.42857142857142855,0.3,0.2857142857142857,1.6306308576710196,0.9996720671475853,0.6638045476914632,0.8472122077797336,0.7281252519634677,0.0,0.08450704225352113,0.03665251610106949,0.9826509827303117,7.696340531730325E-4,3.969827234292667E-4,0.0020754003109468384,0.004714527817263097,0.48084608569913856,0.6559897816510821,0.11525142952673219,0.057905872373801834,0.0,0.6044556917467564,0.7402498601961033,0.06771019279197592,0.7439920941206465,0.8263038697517954,0.04137748526860421,0.0,0.0,0.0,0.42857142857142855,0.26666666666666666,0.14285714285714285,0.4022127683823324,1.1516408100220445,0.6412280083760882,0.003929716291282652,0.5584345339463761,0.0,0.07981220657276995,0.030695219348676472,0.9705648104478797,0.0023058819935688267,9.833301039472045E-4,0.01321731106606316,0.010765477197669612,0.5780345489175264,0.8823000142029905,0.20734815271357063,0.9795033352321292,0.0,0.6279278585948517,0.8786714382233755,0.10742952946131089,0.663608594214121,0.7552782684340699,0.4375756587026476,0.4678614034668234,0.4678614034668234,0.4678614034668234,0.42857142857142855,0.23333333333333334,0.5714285714285714,1.151954649073137,0.9271768602096092,0.6553831398616116,0.27015530772449414,0.6073558980884243,0.0,0.07511737089201878,0.039273907516722995,0.6535484783830248,0.010609274261589174,0.0038567600158819553,4.1317734522726234E-4,0.3229053017467873,0.45171501441384376,0.613496139303087,0.18360443545733532,0.9771730107989279,0.0,0.5656928313406232,0.6958524646567648,0.12271898113130654,0.5187343955078371,0.6858666027774305,0.4356978427115079,0.46877188804228426,0.46877188804228426,0.46877188804228426,0.42857142857142855,0.2,0.0,1.1289724156834717,0.900497546663093,0.5760942384380475,0.27030761458644137,0.5895661625584349,0.0,0.07042253521126761,0.0231931221652173,0.8178043925696723,0.001391075069142898,0.002966750274254738,5.243225611790661E-4,0.15372646494678854,0.40461907410697967,0.5684230981427921,0.08611660015913018,0.022073295366879887,0.0,0.5297807582903548,0.6520735295606929,0.05722296724929755,0.53866605455767,0.6802545103780935,0.04589742186556729,0.0,0.0,0.0,0.42857142857142855,0.16666666666666666,0.2857142857142857,0.39172542964526963,0.9494196148476077,0.6516699564970049,0.0,0.4506625786529423,0.0,0.06572769953051644,0.011931199327221885
C04-1089,0.9802461144672658,0.017214681045936462,0.0017195121652907718,1.8697165411340165E-7,2.7890161136195674E-4,0.6392747365295095,0.8222025004306716,0.3274006486619567,0.0,1.0,0.6924371070381184,0.8119710724444881,0.24806894765254797,0.9131805438991012,0.9284224494173634,0.6218337241728853,0.3744286861655032,0.3744286861655032,0.3744286861655032,0.875,1.0,0.15384615384615385,1.5152003537745147,1.080233060276273,0.6690561613217316,0.5451966819948685,0.7719885559324295,0.6,0.864406779661017,0.14469440379192436,0.9635210112740062,0.028103709505570933,0.007348806909454503,1.647619841660945E-5,7.519770529713677E-4,0.386392965293693,0.5726998848018535,0.1853597991262426,0.0,1.0,0.4854522838773344,0.7186038780125625,0.05526671850009453,0.6366512044699708,0.7588288774579558,0.10025089404935249,0.0,0.0,0.0,0.875,0.967741935483871,0.15384615384615385,0.49019063706356264,1.0579220349087453,0.5765203404246826,0.04299359558134741,0.6701015258475348,0.0,0.8587570621468926,0.011201832026804455,0.6130361248793634,0.20383707552204391,0.15282227155218217,4.5862110466714384E-7,0.003580053870585621,0.47593060315294444,0.7273347805632863,0.13446682467949542,0.0,1.0,0.6170983133905419,0.7679772840976383,0.2002429388865512,0.8180900392283469,0.8559953499488561,0.17913067002333827,0.0,0.0,0.0,0.875,0.9354838709677419,0.0,0.6854000777325813,1.0707826843110237,0.6034534243174474,0.04413511266082852,0.7309375839584537,0.0,0.8531073446327684,0.015964157036695098,0.9443918504033142,0.00997380044094397,0.036851297556902265,1.2609744512418053E-6,4.985287800976058E-4,0.4831610110177974,0.6972943765261758,0.12690870313629637,0.0,1.0,0.5837342336448559,0.7101384683906954,0.12093095102649032,0.8148867511671555,0.8198208118999758,0.6941309563662784,0.7976008258480667,0.7976008258480667,0.7976008258480667,0.875,0.9032258064516129,0.0,1.620005733581452,1.0366279969529901,0.5926155131050276,0.35884708832193596,0.7389991239336536,0.0,0.847457627118644,0.01243600095309201,0.955898576213151,0.0379355406339117,0.005873518018669986,2.7923065982400403E-7,1.2377546799291258E-4,0.5434320006662179,0.7346895996077912,0.22338770392686313,0.0,1.0,0.6292588430276188,0.7841909203339018,0.13219150966662283,0.8870901313684435,0.8779556923756219,0.7014081839160867,0.810610132275647,0.810610132275647,0.810610132275647,0.875,0.8709677419354839,0.07692307692307693,1.659120511004148,1.1099619549070634,0.6416999955187263,0.3647000809234185,0.7414272509030527,0.0,0.8418079096045198,0.018406308340512663,0.9095404261569323,0.025832378378984406,0.06219079300747495,3.1361869706897004E-7,3.522203367192457E-4,0.5262810135995998,0.7052594445079555,0.24096104062048923,0.0,1.0,0.667948546464586,0.7736656922796078,0.2380154387493525,0.8667700446639863,0.8948056755795863,0.8517102651496147,0.5676306727514702,0.5676306727514702,0.5676306727514702,0.875,0.8387096774193549,0.0,1.9762994841209132,1.0777472211165007,0.6782891711268101,0.8223167178005887,0.7618240041716768,0.0,0.8361581920903954,0.013931013902106453,0.9994531874597332,1.0898817439941202E-4,3.1074585871313025E-4,6.530917589657571E-9,1.0958645630956875E-4,0.5478351277503279,0.7410102571902163,0.23546090028668115,0.0,1.0,0.607690963562769,0.7747031202498144,0.10277091259691143,0.878479356872602,0.8937749651440346,0.15837710186139697,0.0,0.0,0.0,0.875,0.8064516129032258,0.38461538461538464,0.6715870513089738,1.0998438354841384,0.655679560278373,0.05393485829375467,0.733504667141308,0.0,0.8305084745762712,0.10973666070616836
W08-2222,0.8346386836967524,0.16133288353198863,0.0011662196060437321,1.1829875224617714E-6,0.002852536714081169,0.6974293127175445,0.7631575666636861,0.5971162788495221,0.00871069202441946,0.0,0.7515646296995478,0.8196308437337111,0.6671329765771964,0.8650427686181124,0.8825941715152442,0.3567501600153752,0.0,0.0,0.0,0.6,0.9347826086956522,0.2857142857142857,1.2869796624139718,1.0593564768715316,0.7692815588966324,0.10861090350713364,0.7875185811392574,0.0,0.6060606060606061,0.010268731861958499,0.024931564096080768,0.0037852134416801343,0.005039177947345489,4.815313293801337E-6,0.005391174706842913,0.5608564419743152,0.6814071165296768,0.39978475762777865,0.0,0.0,0.5968508780043719,0.6967882034586168,0.5403282423812286,0.718708305652849,0.7271427520513435,0.1084242128013424,0.0,0.0,0.0,0.6,0.9130434782608695,0.07142857142857142,0.6344335990797398,0.9865425565019409,0.6153279015778774,0.127462841835468,0.6381443194128985,0.0,0.6,0.0018506164749843674,0.9999831966840004,1.6803312389601476E-5,3.2638888161414386E-22,8.885180922696489E-38,3.5567201456803985E-12,0.19748153156980416,0.27229089732036793,0.13794237019629907,0.0,0.0,0.418546541013625,0.5767744619029799,0.31042025058110645,0.32983619080586535,0.41712257262722846,0.059488768916566306,0.0,0.0,0.0,0.6,0.8913043478260869,0.0,0.5147100347650482,0.7010015694611311,0.31528724190972895,1.5375924139615518E-5,0.4081007483774845,0.0,0.593939393939394,0.27588337755453884,0.96868572413888,0.007119226534682851,0.006262776300321803,9.150558533511515E-6,0.014574326580123767,0.6119575513274427,0.6941665716041465,0.5209421135920573,9.501163456661283E-4,0.0,0.6839746996509274,0.7961968253364171,0.5888198347175448,0.7293291286219226,0.8036966373211506,0.12755593070732876,0.0,0.0,0.0,0.6,0.8695652173913043,0.0,0.7446672234071581,1.1158103935179977,0.6381513444163904,0.12505715872705103,0.6697145017347281,0.0,0.5878787878787879,0.0026726045657374394,0.803430408252215,6.353202986644048E-4,0.020559278174267313,2.4159745069716526E-5,0.1042651280049076,0.42770535471200904,0.5538553238462973,0.338166095579732,0.0,0.0,0.46140449816589957,0.6160489667630623,0.4030709394158867,0.5209836062337698,0.5312079542905749,0.06567189115764892,0.0,0.0,0.0,0.6,0.8478260869565217,0.07142857142857142,0.4478174771494769,0.8730836463372078,0.519179593776877,0.0,0.49585281331615355,0.0,0.5818181818181818,0.0035031215737565714,0.980926386326589,0.007473322560637948,0.0018736085416908303,2.6725526737544474E-6,0.007409993206361414,0.6425031612194888,0.7559166325455774,0.5017007307803599,0.2521454032670404,0.0,0.6902446223668398,0.7337174397134858,0.6242605524008508,0.6805228830285446,0.7182117253073673,0.13612885703554717,0.03864967669751183,0.03864967669751183,0.03864967669751183,0.6,0.8260869565217391,0.0,0.7805348004594486,0.9856905861223093,0.6008890029118429,0.06296679293815399,0.5911967395444938,0.0,0.5757575757575758,0.0025734271740253905,0.914060411907073,0.06760643504148538,0.002004251261950571,3.6580710661258497E-6,0.015584263905999601,0.6830547290455977,0.7968047270692862,0.56393483665128,0.43005482479432994,0.0,0.7125004334231589,0.8232092955822874,0.6256332314292826,0.829132810402184,0.8570911294584362,0.7967595866759646,0.8642847894983222,0.8642847894983222,0.8642847894983222,0.6,0.8043478260869565,0.0,1.7749901387656806,1.2024672528235505,0.742299484986757,0.8242832485285615,0.7069355269764621,0.0,0.5696969696969697,0.006679292556615277
P06-2124,0.7959505972563178,0.0021423603195886275,0.18036770212049835,3.8982787465311207E-7,0.004278533058800862,0.4545787951997958,0.645413605872094,0.0,0.41436135660608264,0.0,0.5995385745059034,0.7741299979681507,0.0,0.7002557775499811,0.822200001450715,0.11682469201960957,0.023390225806812336,0.023390225806812336,0.023390225806812336,0.6666666666666666,0.803921568627451,0.1,0.6499699227039928,1.1247681100850317,0.456368046955892,0.11539309422015473,0.7393317528905062,0.0,0.7975708502024291,0.006469809043059784,0.9978318356889941,5.947402098465485E-4,7.25170509099178E-4,6.921679601648713E-7,4.3768044824460205E-4,0.5412821616923449,0.7348552120595203,0.0,0.103694523497328,0.0,0.5855505649619597,0.7634301553077518,0.0,0.7531724833083526,0.7858698326307415,0.015313903148878571,0.0,0.0,0.0,0.6666666666666666,0.7843137254901961,0.2,0.19262009765078414,1.1370486265923916,0.5922242882021569,0.0,0.718671127930772,0.0,0.7935222672064778,0.008798493843034655,0.9750913055894089,9.241910806259344E-4,0.021002895098759234,1.4382300008195544E-6,0.0013001519320439638,0.5274668739531304,0.7521244619833862,-0.046167084888325056,0.4730205166916382,0.0,0.5939309693754633,0.8253419144548206,0.0,0.8289298715959484,0.8385286199169614,0.782482488486435,0.9715624322417357,0.9715624322417357,0.9715624322417357,0.6666666666666666,0.7647058823529411,0.1,1.7015477573442466,1.2714875205477196,0.6777103789089648,0.4715997726602429,0.7471911647070808,0.0,0.7894736842105263,0.005810366213413952,0.9649203973301054,0.02154425438339963,0.005573887974129644,2.0321566370532165E-6,0.0018740979985122277,0.42516752132484803,0.7952980056938229,-0.020922589789358213,0.8555782506804112,0.0,0.5358421471883476,0.7496743179610942,0.0,0.7177815017735891,0.7274850360747241,0.21999034002444792,0.14554348775384507,0.14554348775384507,0.14554348775384507,0.6666666666666666,0.7450980392156863,0.0,0.8642365495386235,0.9983120948799704,0.5547496733606756,0.07656924874378139,0.6593332144413375,0.0,0.7854251012145749,0.005947132962543739,0.999192574073686,4.562775962476719E-7,3.076671400822517E-5,1.1647320712359992E-9,2.311083515985145E-7,0.3043591220408617,0.7795633790270661,0.0,0.43581973231529125,0.0,0.4530524397400448,0.8182321339349382,0.0,0.5539269311182089,0.6282847646541104,0.7970572414983423,0.8681146868725925,0.8681146868725925,0.8681146868725925,0.6666666666666666,0.7254901960784313,0.4,1.9041042859171653,1.0143401367504268,0.1714968093816803,0.4267453442287517,0.5139476405786719,0.0,0.7813765182186235,0.07549654032481572,0.9962511840151438,7.731220130250998E-4,0.0022664210141902894,8.478542335806378E-7,4.571861923625658E-4,0.39418897970934025,0.7061157069937531,-0.01965064965302043,0.0572412295752581,0.0,0.5075003753454416,0.6824151541102274,0.0,0.6947511204832076,0.7385175294947227,0.04276454528070877,0.0,0.0,0.0,0.6666666666666666,0.7058823529411765,0.0,0.40020615841345053,1.1515578196487883,0.3983473786927739,0.009191874618295652,0.636326202047971,0.0,0.7773279352226721,0.006832191936653904,0.9548852404003818,0.02840205704263653,0.005910092014055843,2.5862069097350292E-6,0.002614060178286646,0.1604839033202159,0.3259897717943579,-0.10389965840257426,0.012259504240427503,0.0,0.37216190896832246,0.5220725268969194,0.0,0.3352557276247701,0.5566736125694767,0.04721682500488942,0.0,0.0,0.0,0.6666666666666666,0.6862745098039216,0.0,0.39122539911158427,1.0047197007099768,0.3024501034858055,0.0016516392993761295,0.5527558490313863,0.0,0.7732793522267206,0.0062736937009381
E09-2008,0.7851976710903605,0.08130815268405055,0.12226672425988623,7.798022825731336E-7,0.0012768325665255115,0.6906237067667775,0.7977826741448515,0.5287588523228917,0.6107978673001826,2.5711482893873375E-5,0.619997525845816,0.752923482719082,0.5209404845740868,0.7885848541576511,0.7693863447007284,0.8594342644669828,0.9291208357245024,0.9291208357245024,0.9291208357245024,1.0,1.0,0.25,1.8820731219528102,0.9840290360655434,0.8138452348045003,0.8151204276880722,0.7709570064048507,0.0,0.9841269841269841,0.011906524106606682,0.5776246141480347,0.237615777836941,0.18446640419959595,3.197867256021249E-7,1.4391627004052437E-4,0.5625437290402252,0.61290175759607,0.5266113344328502,0.23572761042754456,0.0,0.669953838583899,0.703729284888305,0.6387545962423313,0.6816072251269152,0.8111358035667009,0.061066412371795,0.0,0.0,0.0,1.0,0.75,0.125,0.23283223756900923,1.0517247442393431,0.744455939804582,0.3725240309135217,0.8001992712080425,0.0,0.9682539682539683,0.005366406259487336,0.6190425173647143,0.21155770355072995,0.16197900164219886,4.391982299735263E-7,0.005976649049841235,0.6850689894664818,0.7243976640048531,0.612847111709953,0.652841070367301,0.0,0.6978226831682118,0.7409852399339114,0.6281096526912002,0.737925227359963,0.8047612127905464,0.7888389291123442,0.9115158346215145,0.9115158346215145,0.9115158346215145,1.0,0.5,0.125,1.6067116704849966,1.0882102230709259,0.8445539750348052,0.9220384619451865,0.8721866918939809,0.0,0.9523809523809523,0.011458737949717655,0.8806497346606965,0.09024753139878394,0.027435174997932698,1.055016173775145E-8,0.0015155134024344911,0.6787931796760376,0.7434046503068317,0.5843177245033403,0.014536069936903106,0.0,0.7084245695598402,0.779546273984359,0.629379884947715,0.8039406389650724,0.8572370114091865,0.24121320976387445,0.0,0.0,0.0,1.0,0.25,0.375,0.9136077829651164,1.0388837877944899,0.942601590478977,0.2713567510228395,0.9575736445536354,0.0,0.9365079365079365,0.04461245601000609,0.7325025733658733,0.2601509579209752,0.006657361336539115,8.243487158253432E-8,4.393570938592346E-4,0.63823309485539,0.7049883579751609,0.5708541651374628,0.5943115214471719,4.926136725520026E-4,0.6756984276707607,0.7492550329660658,0.5954851342511701,0.7511807939343822,0.8355907851431168,0.8805419598470432,0.9040424779615662,0.9040424779615662,0.9040424779615662,1.0,1.0,0.625,2.029571302203817,1.0128013548206751,0.8417075169320029,0.8401445112020559,0.8381056050653521,0.0,0.9206349206349206,0.03522823442175243,0.6337709249549655,0.36599292051859317,8.319321041256437E-5,1.5242222269527465E-8,1.3149746860324372E-4,0.7314787471159987,0.8139882388446014,0.6158408863464833,0.128976150087045,0.0,0.7509409761323229,0.8043902237049245,0.6766114545563838,0.7765672808237961,0.8670649752109979,0.4581230936145537,0.14968593347342804,0.14968593347342804,0.14968593347342804,1.0,0.9230769230769231,0.375,1.5096719775879226,0.993202318238403,0.7788709887645962,0.242591629887651,0.8370382525387348,1.0,0.9047619047619048,0.04909338738165679,0.936582787240963,0.038456978526463584,0.020553242053697327,4.3831589684362025E-6,5.046224500831277E-5,0.688010360764619,0.7268244862592663,0.6257113971422839,0.6785484131565734,0.0,0.7032468580575095,0.7359381894958072,0.6328136582118714,0.7627904839860045,0.81333843588656,0.7828376109589736,0.8612563392286844,0.8612563392286844,0.8612563392286844,1.0,0.8461538461538461,0.125,1.585139912414271,1.0343498376616944,0.7596437491075159,0.8805405116539828,0.8171457732421255,0.0,0.8888888888888888,0.010433752791512976
C10-1045,0.9906912409942593,0.0028144530069006556,0.0010220799932096326,7.438191779542738E-7,0.003629108315455304,0.5419425619254787,0.6828770911784948,0.4428484928823144,0.6865559502881251,0.0,0.6951195034983997,0.7871302124255143,0.5801600670901488,0.7303339799461168,0.8353004028334258,0.5535549600404651,0.9080873231408364,0.9080873231408364,0.9080873231408364,0.42857142857142855,0.9594594594594594,0.0,2.059710565703126,1.11624177363319,0.5315733051164562,0.13632743757120405,0.762336903761833,0.0,0.573208722741433,0.0034395225159793118,0.9714211228093914,0.006131164276175259,8.472726073834522E-4,1.8142976512553036E-6,0.001502315709378825,0.4908332247133478,0.5602133580850699,0.39873223318635054,0.0,0.0,0.4701265756836952,0.5886199143508032,0.3596815504222755,0.5871867672178738,0.5447582479970421,0.0594470123411852,0.0,0.0,0.0,0.42857142857142855,0.9459459459459459,0.0,0.6217822351607831,0.9982129823467192,0.3611887890701044,0.0,0.45621668312545,0.0,0.5700934579439252,0.0039012881930485938,0.7767510893831145,0.09294132353591034,0.016420691395195437,1.2565659726457285E-4,0.10996012903800068,0.6254334937562454,0.7244060795335474,0.5161341064480902,0.7190868543823786,0.0,0.7099762653950588,0.8250326136480058,0.5637199624840933,0.7811781607784065,0.8419604058862754,0.5339630224433674,0.9511149913241864,0.9511149913241864,0.9511149913241864,0.42857142857142855,0.9324324324324325,0.0,1.8291034352872897,1.2397332807665449,0.6370602785157471,0.12008866506721477,0.7615102802988529,0.0,0.5669781931464174,0.006526980130839469,0.8545900446537654,0.1335085300593491,0.0076124871687056495,2.3130707615106132E-5,0.004204584094979464,0.4502445728574222,0.6752856630159376,0.31116560046904856,0.009703050220658208,0.0,0.5831532498153957,0.7044677866331375,0.39899114694717075,0.6154101324780556,0.7184689395849068,0.11137893970625488,0.0,0.0,0.0,0.42857142857142855,0.918918918918919,0.0,0.9343511632085485,1.2127979816649477,0.5208409898812925,0.0,0.6402561966082497,0.0,0.5638629283489096,0.0036746650823900524,0.9867061773676353,0.005215512691802886,0.004107352478595533,1.156254037650546E-5,0.003141853927461323,0.5370091898018923,0.6511820157901418,0.4052501819956988,0.07232123669559584,0.0,0.5902579044627728,0.698691821711572,0.5000014732125901,0.7189785573969113,0.7128623968735868,0.05135029717806378,0.0,0.0,0.0,0.42857142857142855,0.9054054054054054,0.14285714285714285,0.5722689045107603,1.0467492904058133,0.5147020059354391,0.0,0.6541313429764813,0.0,0.5607476635514018,0.00601191357286403,0.993312126379136,6.741333494609467E-4,0.0019151441549127477,1.538974632751645E-5,0.002344470861009597,0.44350506003116097,0.6497360818841836,0.2658495379909093,0.047136530534971646,0.0,0.6606579821191136,0.7855552053896525,0.5274167172753879,0.6345221372638038,0.7952780038866027,0.05246727017654144,0.0,0.0,0.0,0.42857142857142855,0.8918918918918919,0.0,0.5287583235655966,1.2218400040572086,0.5106380385924916,0.0,0.7890725342526534,0.0,0.557632398753894,0.004459449357749314,0.8878037384786326,0.00152508605864068,0.08430248580269921,4.4004057476335466E-5,0.0057697366678447805,0.349775065170731,0.4267373433924389,0.28904487930949485,0.17501357226298742,0.0,0.5679827522059038,0.7187320981991895,0.4548811055204536,0.49544560931776405,0.6935719967987117,0.0703306011568551,0.0,0.0,0.0,0.42857142857142855,0.8783783783783784,0.0,0.7425424138916472,1.333609933109413,0.3278855484367156,0.0,0.6259285889522718,0.0,0.5545171339563862,0.004763040338807015
